
\data\
ngram 1=53692
ngram 2=57381
ngram 3=34737

\1-grams:
-2.990532	!	-3.037059
-5.873528	$.027
-5.497701	$.03
-5.873528	$.054/mbf
-5.688745	$.07	-0.4777183
-5.873528	$.07/cwt
-5.873528	$.076
-5.873528	$.09
-5.873528	$.10-a-minute
-5.873528	$.105
-5.873528	$.12
-5.873528	$.30
-5.873528	$.30/mbf
-5.873528	$.50
-5.873528	$.65
-5.873528	$.75
-5.873528	$.80
-5.873528	$.86
-5.873528	$.90
-5.873528	$0.9
-4.902071	$1
-5.006806	$1,000
-5.873528	$1,000,000
-5.873528	$1,000,000,000
-5.873528	$1,200
-5.873528	$1,250,000
-5.873528	$1,276
-5.873528	$1,390
-5.873528	$1,450,000,000
-5.497701	$1,500
-5.873528	$1,500,000
-5.873528	$1,600
-5.873528	$1,750,000
-5.873528	$1,800
-5.873528	$1,961,000
-5.873528	$1.0
-5.873528	$1.00
-5.497701	$1.1	-0.6011733
-5.873528	$1.10
-5.873528	$1.26
-5.873528	$1.4
-5.873528	$1.5
-5.873528	$1.6
-5.873528	$1.60
-5.873528	$1.65
-5.873528	$1.7
-5.873528	$1.8
-5.873528	$1.80
-5.873528	$1.9
-5.294833	$10
-5.093956	$10,000
-5.873528	$10,000,000
-5.873528	$10,000-per-year
-5.873528	$10.00
-5.873528	$10.1
-5.873528	$10.3
-5.873528	$10.50
-5.873528	$10.8
-4.969018	$100
-5.497701	$100,000
-5.873528	$102,285,000
-5.873528	$1020
-5.873528	$109
-5.873528	$11
-5.873528	$11,900,000
-5.873528	$11.50
-5.873528	$110
-5.873528	$115,000
-5.873528	$12
-5.873528	$12,192,865
-5.873528	$12,500
-5.873528	$12.00
-5.873528	$12.1
-5.873528	$12.50
-5.873528	$12.7
-5.873528	$120
-5.688745	$125
-5.873528	$128
-5.873528	$133
-5.497701	$135
-5.873528	$139.3
-5.688745	$14
-5.873528	$14,000
-5.873528	$14.00
-5.873528	$140
-5.873528	$148.50
-5.433186	$15
-5.688745	$15,000
-5.873528	$15,000,000
-5.873528	$15.5
-5.315227	$150
-5.873528	$1500
-5.873528	$157,460
-5.873528	$16
-5.873528	$16,000
-5.873528	$16.00
-5.873528	$16.80
-5.873528	$165
-5.873528	$17
-5.688745	$17,000
-5.873528	$17,000,000
-5.873528	$17.8
-5.873528	$170
-5.873528	$172,000
-5.873528	$172,400
-5.873528	$18
-5.873528	$18.2
-5.873528	$18.9
-5.873528	$184
-5.873528	$185
-5.873528	$187
-5.873528	$19.3
-5.145109	$2
-5.315227	$2,000
-5.873528	$2,000,000
-5.873528	$2,170
-5.873528	$2,300
-5.873528	$2,300,000
-5.873528	$2,323,867
-5.873528	$2,330,000
-5.873528	$2,412,616
-5.873528	$2,461,000
-5.873528	$2,490
-5.873528	$2,500
-5.873528	$2,557,111
-5.873528	$2,700
-5.873528	$2.00
-5.873528	$2.09
-5.873528	$2.30/mbf
-5.873528	$2.50
-5.873528	$2.80
-5.873528	$2.82
-5.873528	$2.98
-5.315227	$20
-5.315227	$20,000
-5.873528	$20,000,000
-5.873528	$20,000,000,000
-5.873528	$20,447,000
-5.294833	$200
-5.873528	$200,000
-5.873528	$200,000,000
-5.873528	$200,000-a-year
-5.873528	$214
-5.873528	$22
-5.873528	$22.50
-5.873528	$222
-5.873528	$227.72
-5.873528	$23,000,000
-5.873528	$230,000
-5.873528	$24,926,615
-5.873528	$2400
-5.688745	$25
-5.497701	$25,000
-5.873528	$25-a-plate
-5.497701	$250
-5.873528	$250,000
-5.873528	$2500
-5.873528	$251
-5.873528	$253,355,000
-5.873528	$26,000,000
-5.873528	$26.5-billion
-5.873528	$27.50
-5.873528	$278,877,000
-5.497701	$28	-0.6011196
-5.873528	$28,700,000
-5.873528	$28.00
-5.873528	$29
-5.873528	$29,000
-5.873528	$297
-5.688745	$3
-5.497701	$3,000
-5.873528	$3,500
-5.873528	$3,500,000
-5.873528	$3,675
-5.873528	$3,825
-5.873528	$3.00
-5.873528	$3.11
-5.873528	$3.15
-5.873528	$3.22
-5.873528	$3.5
-5.873528	$3.50
-5.873528	$30
-5.688745	$30,000
-5.873528	$30,000,000
-5.145109	$300
-5.873528	$300,000
-5.873528	$300,000,000
-5.873528	$306
-5.873528	$31,179,816
-5.873528	$310
-5.873528	$3100
-5.873528	$32,000
-5.873528	$325
-5.873528	$344,000
-5.873528	$35
-5.873528	$35,823
-5.873528	$350
-5.873528	$350,000
-5.873528	$36
-5.688745	$37	-0.4700316
-5.873528	$37,500
-5.873528	$380
-5.873528	$39,000
-5.873528	$39.5
-5.873528	$395,000
-5.433186	$4
-5.873528	$4,000
-5.873528	$4,000,000
-5.873528	$4,177.37
-5.873528	$4,500
-5.873528	$4,500,000
-5.873528	$4,700
-5.873528	$4,753
-5.873528	$4,800
-5.873528	$4.9
-5.873528	$4.98
-5.873528	$4/mbf
-5.688745	$40
-5.873528	$40,000
-5.873528	$40,000,000
-5.688745	$400
-5.873528	$4200
-5.873528	$43,000
-5.873528	$43.50
-5.873528	$44.3-billion
-5.497701	$45
-5.688745	$450
-5.873528	$450,000
-5.873528	$451,500
-5.873528	$457,000
-5.873528	$46.7
-5.873528	$47,101,000
-5.294833	$5
-5.315227	$5,000
-5.688745	$5,000,000
-5.873528	$5-8,000
-5.873528	$5.2
-5.873528	$5.4
-5.294833	$50
-5.873528	$50,000
-5.873528	$50,400,000
-4.969018	$500
-5.688745	$500,000
-5.433186	$5000
-5.873528	$52,500
-5.873528	$538
-5.873528	$55,000
-5.873528	$550
-5.873528	$56
-5.873528	$57,500
-5.873528	$58,918
-5.873528	$580
-5.873528	$581
-5.873528	$581,000
-5.873528	$590,000
-5.873528	$6
-5.873528	$6,100,000,000
-5.873528	$6,666.66
-5.315227	$60	-0.3006645
-5.873528	$60,000
-4.934255	$600	-0.07110144
-5.873528	$610
-5.873528	$625,561
-5.873528	$63.8
-5.873528	$634,517,000
-5.873528	$639
-5.873528	$65
-5.873528	$65,000
-5.873528	$650
-5.873528	$66,000
-5.873528	$67,000
-5.688745	$7
-5.873528	$7,000
-5.873528	$7,000,000
-5.873528	$7,082
-5.873528	$7,500,000
-5.873528	$7.00
-5.873528	$7.20
-5.873528	$7.50
-5.873528	$70
-5.873528	$70,000
-5.497701	$700
-5.873528	$720
-5.873528	$73.50
-5.873528	$740
-5.873528	$740,000
-5.497701	$75
-5.873528	$75,000,000
-5.873528	$75-billion
-5.688745	$750
-5.873528	$750,000
-5.873528	$754
-5.873528	$77,389,000
-5.873528	$79.89
-5.873528	$8
-5.873528	$8,250
-5.873528	$8,313,514
-5.873528	$8,555
-5.873528	$8.00
-5.873528	$8.5
-5.873528	$8.50
-5.873528	$80
-5.873528	$80,738
-5.315227	$800
-5.873528	$800,000
-5.873528	$81
-5.873528	$83,750
-5.873528	$84,000,000
-5.873528	$840,000
-5.873528	$842,617
-5.688745	$85
-5.873528	$88,000
-5.873528	$9
-5.873528	$9,841,000
-5.873528	$9.2
-5.873528	$9.50
-5.873528	$90
-5.688745	$900
-5.873528	$94
-3.844079	&	-0.2641474
-3.60729	'	-0.05652508
-2.182503	''	-0.7992506
-5.873528	'13
-5.873528	'20's
-5.873528	'20s
-5.873528	'25
-5.873528	'30s
-5.873528	'31
-5.873528	'38
-5.873528	'40's
-5.688745	'48
-5.873528	'49
-5.688745	'50	-0.4769228
-5.873528	'50's
-5.873528	'51
-5.688745	'52
-5.873528	'53
-5.873528	'54
-5.873528	'55
-5.688745	'58	-0.4769228
-5.873528	'60
-5.873528	'60s
-5.497701	'61	-0.5806606
-5.873528	'76
-5.873528	'80's
-5.873528	'90s
-5.873528	'?'
-5.873528	'bout
-5.873528	'cept
-4.529685	'em	-0.05070885
-5.873528	'emselves
-5.873528	'fore
-5.315227	'im
-5.873528	'low
-5.873528	'mon
-5.873528	'n'
-5.873528	'nother
-5.873528	'nough
-5.873528	'nuff
-5.873528	'pache
-5.433186	'round
-5.873528	'scuse
-5.873528	'stead
-5.873528	'tain't
-5.873528	'thirties
-5.873528	'till
-5.873528	'tis
-5.873528	'way
-2.671075	(	-0.2143837
-2.665461	)	-0.3478267
-5.873528	**b
-5.433186	**ya	-0.3937066
-5.688745	**yb
-5.145109	**yc	-0.1212602
-5.873528	**ye
-5.145109	**yf	-0.1212602
-5.873528	**yg
-5.873528	**yg-globulin
-5.873528	**yj
-5.315227	**yl	-0.1552255
-5.873528	**ym
-5.873528	**ymg
-5.873528	**yp
-5.873528	**yr
-5.497701	**yt
-4.543048	**zg	-0.2562556
-5.873528	**zq
-5.873528	+
-1.324997	,	-0.3088759
-4.156104	-	-0.105924
-2.563756	--	-0.2662351
-5.873528	-.10
-5.873528	-.5
-5.873528	-.50
-5.873528	-16-degrees
-5.873528	-20-degrees
-5.873528	-20-degrees-C
-5.688745	-78-degrees
-5.873528	-ing
-5.873528	-ism
-1.399565	.	-4.628106
-4.747169	/	-0.09409612
-5.873528	/l/
-5.873528	/r/
-4.705776	0	-0.07235831
-5.873528	0.001
-5.873528	0.002''
-5.873528	0.005
-5.873528	0.025-in.
-5.873528	0.039
-5.873528	0.043
-5.873528	0.075
-5.873528	0.080-in.
-5.093956	0.1	-0.1666323
-5.873528	0.1-mv./m.
-5.873528	0.10
-5.873528	0.12
-5.873528	0.15
-5.873528	0.154
-5.873528	0.16
-5.497701	0.2
-5.873528	0.24
-5.873528	0.25
-5.873528	0.28
-5.688745	0.3
-5.873528	0.36
-5.873528	0.3M
-5.497701	0.4
-5.093956	0.5	-0.09993518
-5.873528	0.5''
-5.873528	0.5-mv./m.
-5.873528	0.50
-5.873528	0.52
-5.873528	0.6
-5.873528	0.7
-5.873528	0.70
-5.873528	0.78
-5.497701	0.8
-5.873528	0.85
-5.873528	0.85%
-5.873528	0.906
-5.873528	0.95
-5.873528	035
-5.873528	046
-5.688745	05	-0.4602009
-5.873528	06-05
-5.873528	060
-5.873528	0600
-5.873528	08
-3.326388	1	-0.6201091
-5.873528	1%
-5.688745	1''	-0.4749998
-5.006806	1,000
-5.873528	1,000,000
-5.873528	1,018,000
-5.873528	1,065
-5.873528	1,080,062
-5.873528	1,083,000
-5.873528	1,100
-5.873528	1,107
-5.873528	1,119
-5.873528	1,212
-5.873528	1,212,000
-5.873528	1,225
-5.873528	1,230
-5.873528	1,253
-5.873528	1,257,700
-5.873528	1,286
-5.873528	1,338,000
-5.873528	1,343
-5.873528	1,400
-5.873528	1,418,000
-5.873528	1,419,833
-5.873528	1,450
-5.873528	1,450,000
-5.873528	1,488
-5.688745	1,500
-5.873528	1,509
-5.873528	1,512
-5.873528	1,524
-5.873528	1,525,000
-5.873528	1,541,991
-5.873528	1,571
-5.873528	1,600
-5.873528	1,700
-5.873528	1,800
-5.873528	1,800,000
-5.873528	1,850
-5.873528	1,900
-5.873528	1-0
-5.497701	1-1/2
-5.873528	1-1/2-inch
-5.873528	1-1/2-story
-5.873528	1-1/4''
-5.873528	1-3
-5.873528	1-6
-5.873528	1-701
-5.497701	1-a
-5.873528	1-degree
-5.873528	1-degree-C
-5.873528	1-hp
-5.873528	1-inch
-5.873528	1-ml
-5.873528	1-o
-5.873528	1-ton
-5.688745	1.0
-5.873528	1.0-mg.
-5.873528	1.00
-5.873528	1.07
-5.873528	1.09.3
-5.688745	1.1
-5.873528	1.10.1
-5.873528	1.10.4
-5.873528	1.10.8
-5.873528	1.2
-5.873528	1.23
-5.873528	1.24
-5.873528	1.25
-5.873528	1.25%
-5.873528	1.25-cm
-4.969018	1.5	-0.07923118
-5.873528	1.58
-5.688745	1.8
-5.873528	1.8%
-5.873528	1/16
-5.873528	1/16''
-4.844079	1/2	-0.2995273
-5.145109	1/2''	-0.9513803
-5.873528	1/2-inch
-5.873528	1/20th
-5.873528	1/3
-5.093956	1/4	-0.1759326
-5.145109	1/4''	-0.9513803
-5.873528	1/4-inch
-5.873528	1/50th
-5.294833	1/8''	-0.8298344
-5.873528	1/8-inch
-5.873528	1/c
-3.869222	10	-0.2519394
-5.294833	10%	-0.132726
-5.688745	10''	-0.4749998
-4.902071	10,000
-5.873528	10,000,000
-5.873528	10,500
-5.873528	10,517
-5.873528	10-12
-5.873528	10-M-diameter
-5.873528	10-day
-5.873528	10-degrees
-5.873528	10-degrees-C
-5.873528	10-foot
-5.873528	10-gallon
-5.873528	10-hour
-5.873528	10-milligram
-5.873528	10-o'clock
-5.873528	10-team
-5.093956	10-year	-0.3639433
-5.497701	10-year-old
-5.873528	10-yr.
-5.873528	10.2
-5.873528	10.3
-5.873528	10.3-cm
-5.873528	10.4
-5.873528	10.6
-5.873528	10.6%
-5.873528	10.8%
-4.161708	100	-0.1589229
-5.145109	100%
-5.093956	100,000
-5.873528	100-200
-5.873528	100-brick
-5.873528	100-megaton
-5.873528	100-million-lb.
-5.873528	100-ton
-5.873528	100-yard
-5.006806	1000	-0.08723033
-5.873528	1000-m-diameter
-5.873528	1001
-5.873528	101
-5.873528	101b
-5.873528	102
-5.873528	1020
-5.873528	1024
-5.873528	103
-4.969018	104	-0.7357017
-5.145109	1040	-0.1074009
-5.497701	1040A
-5.873528	1044
-5.873528	105
-5.873528	105,000
-5.873528	105-degrees
-5.873528	105-degrees-F
-5.873528	106
-5.873528	106,500
-5.873528	1065
-5.873528	1066
-5.873528	1068
-5.497701	108
-5.688745	109-degrees-F	-0.4769349
-5.873528	10:00
-5.873528	10:05
-5.873528	10:30
-5.873528	10:45
-5.873528	10:50
-5.873528	10th
-4.255807	11	-0.1486869
-5.873528	11%
-5.873528	11,000
-5.873528	11,330
-5.873528	11,744
-5.873528	11-18
-5.873528	11-3
-5.873528	11-5
-5.873528	11-7
-5.873528	11-inch
-5.873528	11-month-old
-5.873528	11-shot
-5.873528	11-year
-5.873528	11-year-old
-5.873528	11.2
-5.873528	11.6
-5.294833	110
-5.873528	110-degrees
-5.873528	110-degrees-C
-5.294833	1105	-0.23996
-5.433186	111
-5.688745	113
-5.497701	114
-5.873528	115
-5.873528	1159
-5.873528	116
-5.873528	116,000
-5.873528	1162
-5.873528	117
-5.873528	1184
-5.873528	11:00
-5.497701	11:20
-5.873528	11:30
-5.688745	11th
-4.065928	12	-0.2538765
-5.688745	12%
-5.873528	12'
-5.433186	12''	-0.6531604
-5.688745	12,000
-5.873528	12,500
-5.873528	12-1/2
-5.873528	12-1/2-inch
-5.873528	12-14
-5.873528	12-17
-5.688745	12-gauge
-5.873528	12-inch
-5.873528	12-month
-5.873528	12-oz.
-5.873528	12-passenger
-5.873528	12-shot
-5.873528	12-to-one
-5.873528	12-year-old
-5.873528	12.8
-5.315227	120
-5.873528	120,000
-5.873528	120-degrees
-5.873528	1200
-5.873528	1200-square-foot
-5.688745	121
-5.873528	121,000
-5.873528	1213
-5.873528	1213-15
-5.873528	1215
-5.873528	122
-5.873528	122,158
-5.873528	1223
-5.873528	123
-5.873528	1231
-5.873528	124
-5.688745	125
-5.873528	125,000
-5.873528	125th
-5.688745	126
-5.873528	126,000
-5.873528	127
-5.873528	127-mile
-5.688745	128
-5.873528	129%
-5.873528	1290
-5.873528	1298
-5.873528	12:00
-5.873528	12:01
-5.873528	12:50
-5.873528	12a
-5.873528	12th
-4.358003	13	-0.203078
-5.873528	13%
-5.873528	13,200
-5.873528	13-1/2
-5.873528	13-16
-5.873528	13-5
-5.873528	13-8
-5.688745	13.5
-5.873528	13.8
-5.873528	13.9
-5.873528	13/16-inch
-5.433186	130
-5.873528	130-year
-5.873528	1300
-5.873528	1307
-5.873528	1310
-5.873528	1311
-5.873528	132,000
-5.497701	133
-5.688745	135
-5.873528	135*0C.
-5.873528	137
-5.873528	138
-5.873528	139
-5.873528	139-foot
-5.315227	13th
-4.300011	14	-0.2767482
-5.688745	14%
-5.873528	14-1
-5.497701	14-1/2	-0.6011872
-5.873528	14-15
-5.873528	14-2
-5.873528	14-power
-5.873528	14-term
-5.873528	14.2
-5.873528	14.5
-5.873528	14.7
-5.688745	140
-5.873528	140,000
-5.873528	140,414
-5.873528	140-degrees-F
-5.873528	1409
-5.873528	142
-5.873528	143
-5.873528	144
-5.873528	145
-5.873528	145-pound
-5.873528	1450
-5.873528	1453
-5.873528	147,000
-5.873528	1479
-5.873528	149
-5.873528	1492
-5.497701	14th
-3.99512	15	-0.3197151
-5.433186	15%
-5.873528	15,000
-5.873528	15,500-lb.
-5.873528	15-
-5.873528	15-1
-5.873528	15-17
-5.873528	15-20
-5.873528	15-degree
-5.873528	15-hit
-5.873528	15-to-one
-5.873528	15-year-old
-5.873528	15.0
-5.873528	15.4
-5.873528	15.5
-5.873528	15.8
-5.093956	150
-5.873528	150,000,000
-5.873528	150-milliampere
-5.873528	1500
-5.873528	151
-5.873528	1514
-5.873528	1515
-5.873528	1516
-5.873528	153
-5.497701	154	-0.3013801
-5.873528	1540
-5.873528	1543
-5.873528	155
-5.873528	155-yarder
-5.873528	1550
-5.873528	1558
-5.688745	156
-5.873528	1565
-5.873528	157
-5.873528	1577
-5.873528	1579
-5.873528	158
-5.873528	158-pounder
-5.873528	1581
-5.688745	1582
-5.873528	1589
-5.873528	1590
-5.873528	1592
-5.873528	1593
-5.873528	1594-1674
-5.873528	1595
-5.873528	1596
-5.873528	1596/7
-5.873528	1597
-5.873528	1597/8
-5.873528	1598
-5.873528	1598/9
-5.873528	1599
-4.902071	15th	-0.1969082
-4.323923	16	-0.1295957
-5.688745	16,000
-5.873528	16-22
-5.873528	16-hour
-5.873528	16-mesh
-5.873528	16-page
-5.873528	16-year-old
-5.873528	16.38
-5.873528	16.7
-5.497701	160
-5.873528	160,000
-5.873528	160-degrees-F
-5.873528	160-ml.
-5.688745	1600
-5.873528	1600/1
-5.873528	1601
-5.688745	1602
-5.873528	1605
-5.873528	1607
-5.873528	1608
-5.688745	1609
-5.873528	161
-5.688745	1610
-5.688745	1611
-5.873528	1613
-5.873528	1615
-5.873528	162
-5.873528	162,400
-5.873528	162-game
-5.873528	1622
-5.873528	1624
-5.433186	1625	-0.2044344
-5.873528	1626
-5.873528	1628
-5.873528	1628/29
-5.497701	1629
-5.873528	1630
-5.873528	1631
-5.497701	1632
-5.873528	1633
-5.873528	1637
-5.873528	1638
-5.873528	1639
-5.873528	1639-40
-5.873528	164
-5.873528	1640
-5.873528	1642
-5.688745	1643
-5.873528	1644
-5.873528	165
-5.873528	165-unit
-5.873528	1655
-5.873528	1657
-5.873528	166
-5.873528	1665
-5.873528	1665.32
-5.873528	1667.36
-5.873528	1671
-5.873528	1678
-5.688745	168
-5.873528	1680
-5.873528	1687
-5.873528	1688
-5.873528	169
-5.873528	1690
-5.873528	1692
-5.873528	1693
-5.433186	16th
-4.435415	17	-0.294407
-5.873528	17,000
-5.873528	17-1/2-inch
-5.873528	17.3
-5.873528	170
-5.873528	170-degrees-C
-5.688745	1700
-5.873528	1700's
-5.873528	1702-14
-5.688745	1707
-5.873528	1709
-5.873528	171
-5.873528	1714
-5.873528	172
-5.873528	1720
-5.873528	1721
-5.873528	1724
-5.873528	1727
-5.873528	1728
-5.873528	172nd
-5.873528	173
-5.873528	1730
-5.873528	1731
-5.873528	1732
-5.873528	1733
-5.873528	174
-5.873528	1745
-5.873528	1746
-5.873528	1747
-5.873528	1748
-5.873528	175
-5.873528	175,000
-5.873528	1750
-5.873528	1751
-5.873528	1755
-5.873528	1764
-5.873528	1769
-5.873528	1769-1842
-5.873528	1770's
-5.873528	1771
-5.873528	1773
-5.873528	1774
-5.433186	1776
-5.873528	1777
-5.873528	1778
-5.873528	1780
-5.873528	1781
-5.873528	1782
-5.688745	1783
-5.873528	1785
-5.873528	1786
-5.873528	1786-1865
-5.873528	1787
-5.873528	1787-89
-5.688745	1788
-5.873528	1788-1873
-5.688745	1789
-5.873528	1789-1839
-5.688745	1791
-5.688745	1792	-0.4602009
-5.433186	1793
-5.688745	1797
-5.873528	1799
-5.873528	17:07
-5.873528	17e
-5.048199	17th	-0.20097
-4.307836	18	-0.2591425
-5.873528	18'.5
-5.873528	18,792
-5.873528	18-1/2
-5.873528	18-1/2-inch
-5.873528	18-25
-5.873528	18-month
-5.145109	180
-5.873528	180-degrees
-5.873528	1800
-5.873528	1800's
-5.873528	1800-square-foot
-5.497701	1801
-5.873528	1802
-5.688745	1803
-5.873528	1803-1895
-5.873528	1804
-5.873528	1805-1879
-5.873528	1806
-5.873528	1807-1892
-5.873528	1808-1895
-5.433186	1810
-5.873528	1811
-5.873528	1811-1884
-5.497701	1812
-5.873528	1813
-5.873528	1814
-5.315227	1815
-5.873528	1816
-5.497701	1817
-5.497701	1818
-5.294833	1819
-5.873528	182
-5.688745	1820
-5.433186	1821
-5.873528	1822
-5.873528	1823
-5.873528	1825
-5.873528	1825-1826
-5.873528	1827
-5.873528	1830
-5.873528	1831
-5.294833	1832	-0.2217714
-5.873528	1833
-5.433186	1834
-5.688745	1835
-5.873528	1837
-5.873528	1838
-5.497701	1840
-5.873528	1840's
-5.873528	1841
-5.873528	1843
-5.433186	1844
-5.433186	1845	-0.2010447
-5.873528	1846
-5.873528	1847
-5.688745	1848
-5.873528	1849
-5.873528	185
-5.873528	185,000
-5.688745	1850
-5.873528	1850's
-5.497701	1851
-5.873528	1852
-5.873528	1853
-5.873528	1854
-5.873528	1855
-5.873528	1857
-5.873528	1858
-5.048199	1859	-0.3737555
-5.873528	1859-1929
-5.873528	185th
-5.873528	186
-5.688745	1860
-5.873528	1860's
-5.145109	1861
-5.873528	1862
-5.688745	1863
-5.688745	1864
-5.315227	1865
-5.873528	1866
-5.873528	1867
-5.433186	1868	-0.2010447
-5.873528	1869
-5.873528	187-mile
-5.873528	187.5
-5.873528	1870
-5.873528	1870's
-5.873528	1871
-5.688745	1872
-5.873528	1874
-5.497701	1875
-5.497701	1876
-5.873528	1878
-5.873528	1879
-5.873528	188
-5.873528	1880-1900
-5.873528	1880s
-5.873528	1881
-5.873528	1881-85
-5.688745	1882
-5.315227	1883
-5.873528	1884
-5.688745	1885
-5.873528	1886
-5.497701	1887
-5.315227	1888	-0.1552255
-5.873528	1889
-5.873528	189
-5.688745	1890
-5.688745	1890's
-5.873528	1890s
-5.497701	1891
-5.497701	1892
-5.688745	1893
-5.315227	1895	-0.1552255
-5.145109	1896
-5.688745	1897
-5.873528	1897-8
-5.497701	1898	-0.2803494
-5.688745	1899
-5.873528	18e
-5.093956	18th
-5.873528	18th-Century
-4.543048	19	-0.3405885
-5.873528	19,000
-5.873528	19,000,000
-5.873528	19-1/2
-5.873528	19-12
-5.873528	19-23
-5.873528	19-foot
-4.934255	1900	-0.1177129
-5.873528	1900's
-5.497701	1901
-5.688745	1902
-5.688745	1903
-5.688745	1904
-5.315227	1905
-5.688745	1906
-5.497701	1907
-5.145109	1908	-0.1040113
-5.433186	1909
-5.873528	1909-10
-4.844079	1910	-0.06905936
-5.873528	1910-14
-5.688745	1911
-5.873528	1911-1912
-4.872108	1912	-0.3082224
-4.969018	1913	-0.1366682
-5.145109	1914
-5.873528	1914-1918
-5.433186	1915
-5.497701	1916
-5.048199	1917	-0.1371174
-5.873528	1917-18
-5.688745	1918
-5.873528	1918-19
-5.315227	1919
-5.873528	192
-5.006806	1920	-0.1171439
-5.145109	1920's	-0.2722273
-5.497701	1920s
-5.145109	1921
-5.145109	1922
-5.294833	1923	-0.1286149
-5.873528	1923-27
-5.093956	1924	-0.1548965
-5.093956	1925	-0.1548965
-5.315227	1926
-4.769445	1927	-0.3876459
-5.433186	1928	-0.2010447
-5.873528	1928-29
-5.294833	1929	-0.1252252
-5.006806	1930	-0.2411841
-5.294833	1930's
-5.873528	1930s
-5.145109	1931
-5.688745	1932
-5.873528	1932-33
-5.093956	1933	-0.08819937
-5.315227	1934
-5.145109	1935	-0.1074009
-5.873528	1935-1955
-5.433186	1936
-5.093956	1937	-0.2286754
-5.315227	1938	-0.1552255
-5.873528	1938-1939
-5.873528	1938-39
-5.433186	1939	-0.2010447
-4.902071	1940	-0.2548987
-5.873528	1940's
-5.873528	1940s
-5.006806	1941	-0.06618158
-5.006806	1942	-0.2500621
-4.969018	1943	-0.2197706
-4.902071	1944	-0.203214
-4.792926	1945	-0.4373692
-4.747169	1946	-0.07304687
-5.873528	1946-52
-4.902071	1947	-0.1522636
-5.873528	1947-49
-4.725979	1948	-0.05224929
-4.769445	1949	-0.2786971
-5.873528	195
-5.873528	195-page
-4.725979	1950	-0.3110825
-5.497701	1950's
-5.873528	1950-1953
-5.688745	1950s
-4.747169	1951	-0.2650861
-5.873528	1951-1956
-4.556837	1952	-0.3667594
-5.873528	1952-1958
-4.633225	1953	-0.2496076
-4.385441	1954	-0.2413855
-4.60104	1955	-0.3796786
-4.60104	1956	-0.2925679
-4.366957	1957	-0.5503239
-5.873528	1957-1958
-5.873528	1957b
-4.089157	1958	-0.5252509
-5.873528	1958-60
-4.039598	1959	-0.5649585
-5.688745	1959-1960
-5.873528	1959-60
-5.873528	196
-3.81267	1960	-0.4355585
-5.294833	1960's
-5.873528	1960-1961
-5.873528	1960-61
-5.873528	1960s
-3.921094	1961	-0.3451252
-5.873528	1961's
-5.873528	1961-62
-4.50413	1962	-0.5044599
-5.145109	1963	-0.1074009
-5.873528	1963-1972
-5.688745	1964
-5.433186	1965	-0.2010447
-5.497701	1966
-5.873528	1967
-5.688745	1970
-5.873528	1970s
-5.873528	1971
-5.873528	1972
-5.873528	1976
-5.873528	198
-5.497701	1980
-5.873528	1981
-5.873528	1984
-5.688745	1986
-5.873528	1991
-5.145109	19th	-0.1250536
-5.873528	19th-century
-5.873528	1:00
-5.873528	1:218
-5.873528	1:35
-5.873528	1:48
-5.873528	1:59.3
-5.873528	1M
-5.873528	1a
-3.399838	2	-0.664017
-5.093956	2%
-5.873528	2'
-5.873528	2''
-5.873528	2's
-5.145109	2,000
-5.873528	2,090
-5.873528	2,100
-5.873528	2,200,000
-5.873528	2,300
-5.873528	2,417
-5.873528	2,418
-5.873528	2,425
-5.873528	2,460
-5.873528	2,489,000
-5.873528	2,500
-5.873528	2,700,877
-5.873528	2,758
-5.873528	2,800
-5.873528	2,800,000
-5.873528	2,887,671
-5.873528	2,963
-5.688745	2-1/2
-5.873528	2-2
-5.873528	2-3
-5.873528	2-3/4
-5.873528	2-3/4''
-5.873528	2-4
-5.873528	2-5
-5.145109	2-56	-0.1074009
-5.873528	2-and-2
-5.873528	2-baser
-5.873528	2-degrees-C
-5.873528	2-hour-and-27-minute
-5.873528	2-inch
-5.873528	2-liter
-5.873528	2-over-par
-5.873528	2-run
-5.873528	2-score-year
-5.873528	2-week
-5.433186	2-year-old
-5.688745	2-year-olds
-5.873528	2.0
-5.497701	2.1
-5.873528	2.1.6
-5.873528	2.16
-5.873528	2.2
-5.873528	2.21.6
-5.873528	2.26
-5.873528	2.295%
-5.873528	2.3
-5.873528	2.325%
-5.688745	2.4
-5.873528	2.405
-5.873528	2.44
-5.497701	2.5
-5.873528	2.5%
-5.873528	2.512
-5.873528	2.54
-5.873528	2.55
-5.873528	2.58
-5.497701	2.6
-5.873528	2.7
-5.873528	2.75
-5.873528	2.8
-5.873528	2/3
-5.873528	2/4
-5.873528	2/c
-4.084411	20	-0.2491904
-5.433186	20%
-5.433186	20,000
-5.873528	20,000,000
-5.873528	20-22
-5.873528	20-25
-5.873528	20-cps
-5.873528	20-degrees-C
-5.873528	20-gauge
-5.873528	20-inch-barrel
-5.873528	20-megaton
-5.873528	20-mm
-5.873528	20-piece
-5.873528	20-to-1
-5.873528	20-year-old
-4.479997	200	-0.05567595
-5.497701	200,000
-5.873528	200-degrees
-5.873528	200-man
-5.873528	200-megaton
-5.873528	200-odd
-5.433186	2000
-5.873528	202
-5.294833	203	-0.2292722
-5.873528	2048
-5.873528	205-pound
-5.873528	2051
-5.873528	206
-5.873528	208-pound
-4.969018	20th	-0.1247717
-5.873528	20th-Century
-5.873528	20th-century
-4.376101	21	-0.2706365
-5.873528	21%
-5.873528	21-2
-5.873528	21-22
-5.873528	21-9
-5.873528	21-cm
-5.873528	21-inch
-5.873528	21-year
-5.873528	21-year-old
-5.873528	21/64''
-5.873528	210
-5.688745	2100
-5.873528	211
-5.873528	2118
-5.873528	213
-5.873528	2130
-5.873528	214
-5.873528	214,938
-5.873528	215
-5.873528	216
-5.688745	21st
-4.385441	22	-0.181557
-5.873528	22%
-5.873528	22,000
-5.873528	22,807
-5.873528	22-1/2
-5.873528	22-12
-5.873528	22-24
-5.873528	22-29
-5.873528	22-acre
-5.873528	22-day
-5.873528	22-year-old
-5.873528	220
-5.873528	220-degrees
-5.873528	220-yard
-5.873528	221-207
-5.873528	22111
-5.873528	2230
-5.873528	224-170
-5.873528	225,000
-5.873528	225/hp
-5.873528	2269
-5.873528	2274
-5.873528	228
-5.873528	228-229
-5.873528	229
-5.873528	22nd
-4.376101	23	-0.2880199
-5.873528	23-30
-5.873528	23-36
-5.873528	23-year-old
-5.688745	230
-5.873528	235
-5.873528	236
-5.873528	237%
-5.873528	239
-5.873528	23:30
-5.873528	23:34
-5.873528	23A
-5.433186	23d	-0.3975022
-5.688745	23rd
-4.366957	24	-0.150256
-5.873528	24%
-5.873528	24''
-5.873528	24,400
-5.873528	24-degrees
-5.873528	24-hour
-5.873528	24-hour-day
-5.145109	24-hr.	-0.1250575
-5.873528	24-in.
-5.873528	24-inch
-5.873528	24-sheet
-5.873528	24-year-old
-5.873528	240
-5.873528	240-grain
-5.873528	242%
-5.873528	2433
-5.873528	2454
-5.873528	247
-5.294833	24th	-0.1252252
-4.134385	25	-0.342126
-5.315227	25%
-5.294833	25,000
-5.873528	25,000,000
-5.873528	25,000-man
-5.873528	25-30
-5.873528	25-cents
-5.873528	25-foot
-5.873528	25-footer
-5.873528	25-ft.
-5.873528	25-gallon
-5.873528	25-liter
-5.873528	25-mile-square
-5.873528	25-minute
-5.873528	25-year-old
-5.873528	25.1%
-5.873528	25.3
-5.006806	250
-5.497701	250,000
-5.873528	250-275
-5.873528	2500
-5.873528	253
-5.873528	254
-5.873528	2544
-5.873528	255
-5.688745	256
-5.873528	258
-5.873528	25th
-4.543048	26	-0.2527078
-5.873528	26,500
-5.873528	26-2
-5.873528	26-28
-5.873528	26-year-old
-5.873528	26.8
-5.433186	260
-5.873528	260-member
-5.873528	261
-5.873528	265
-5.873528	266-366
-5.873528	268,900
-5.873528	2688
-5.873528	269
-5.873528	26th
-4.633225	27	-0.1898025
-5.873528	27%
-5.873528	27,000
-5.873528	27-30
-5.873528	27-in.
-5.873528	27-year-old
-5.873528	270
-5.873528	270,000
-5.873528	2705
-5.873528	271
-5.873528	272
-5.873528	273
-5.873528	2731
-5.497701	275
-5.873528	275-300
-5.873528	275-degrees-F
-5.873528	278
-5.873528	27th
-4.725979	28	-0.1722161
-5.873528	28-30
-5.497701	280
-5.873528	280-yard
-5.873528	2809
-5.873528	281
-5.873528	2825
-5.873528	283
-5.873528	285
-5.315227	28th
-4.686471	29	-0.2460077
-5.873528	29-5
-5.873528	29-Oct.
-5.873528	29.2
-5.873528	294-degrees-K
-5.873528	2991
-5.433186	29th
-5.873528	2:00.2
-5.873528	2:00.3
-5.688745	2:01.1
-5.873528	2:01.3
-5.873528	2:02
-5.873528	2:02.2
-5.873528	2:02.3
-5.873528	2:03
-5.873528	2:04
-5.873528	2:04.2
-5.873528	2:05
-5.873528	2:05.1
-5.873528	2:05.2
-5.873528	2:05.3
-5.873528	2:06
-5.873528	2:06.1
-5.873528	2:06.3
-5.873528	2:12
-5.873528	2:19
-5.873528	2:20
-5.873528	2:21
-5.873528	2:22
-5.873528	2:24
-5.873528	2:25
-5.873528	2:26
-5.873528	2:26.2
-5.873528	2:28-:33
-5.873528	2:28-:36
-5.688745	2:30
-5.873528	2:30-:33.2
-5.873528	2:30-:34.3
-5.873528	2:30-:36
-5.873528	2:30.3-35.3
-5.873528	2:30.3-:35.3
-5.688745	2:30.3-:36	-0.4758371
-5.873528	2:30.3-:36.1
-5.873528	2:31
-5.873528	2:31.3-:35.3
-5.873528	2:32
-5.873528	2:32.2
-5.873528	2:32.4
-5.688745	2:33
-5.873528	2:33.2
-5.873528	2:33.3
-5.497701	2:34
-5.873528	2:34-:34
-5.873528	2:34.2
-5.093956	2:35	-0.4427966
-4.969018	2:36	-0.7761262
-5.294833	2:37	-0.5660991
-5.873528	2:37.3--:36.1
-5.873528	2:38
-5.873528	2:40
-5.873528	2:43.1--:38
-5.873528	2:46
-5.873528	2:67
-5.873528	2a
-5.497701	2d
-5.688745	2nd
-3.591833	3	-0.615414
-5.688745	3%
-5.873528	3''
-5.873528	3's
-5.093956	3,000
-5.873528	3,000-foot
-5.873528	3,325
-5.873528	3,399
-5.873528	3,400
-5.873528	3,450
-5.688745	3,500
-5.873528	3-0
-5.688745	3-1/2
-5.873528	3-1/2''
-5.873528	3-10
-5.873528	3-3/4''
-5.873528	3-48
-5.873528	3-5
-5.873528	3-7/8
-5.873528	3-by-6-ft.
-5.873528	3-cm
-5.873528	3-foot
-5.873528	3-game
-5.873528	3-hitter
-5.873528	3-hp.
-5.873528	3-inch
-5.873528	3-month
-5.873528	3-run
-5.873528	3-to-3
-5.873528	3-to-o
-5.873528	3-year-old
-5.873528	3.0
-5.873528	3.03
-5.873528	3.1
-5.873528	3.10
-5.873528	3.1416
-5.497701	3.15	-0.3013956
-5.873528	3.190
-5.873528	3.25
-5.873528	3.25''
-5.873528	3.28
-5.873528	3.3
-5.873528	3.4
-5.873528	3.46
-5.497701	3.5
-5.873528	3.5%
-5.873528	3.7
-5.873528	3.75
-5.873528	3.8
-5.873528	3.9
-5.873528	3.98
-5.873528	3/16''
-5.873528	3/4
-5.873528	3/64''
-5.873528	3/8-inch
-5.873528	3/8-inch-thick
-3.998981	30	-0.3460097
-5.433186	30%
-5.873528	30''
-5.433186	30,000
-5.873528	30,000,000
-5.873528	30-
-5.873528	30-30
-5.873528	30-inch
-5.873528	30-minute
-5.873528	30-odd
-5.873528	30-piece
-5.873528	30-year
-4.650259	300	-0.05541433
-5.315227	300,000
-5.873528	300-450
-5.873528	3000
-5.873528	300th
-5.873528	302
-5.873528	307
-5.433186	30th
-4.468415	31	-0.3662638
-5.873528	312
-5.873528	314
-5.873528	31730
-5.873528	3181
-5.873528	31978
-5.873528	31st
-4.934255	32	-0.09280617
-5.873528	32*0C.
-5.873528	32,000
-5.873528	32,589
-5.873528	32-degrees-C
-5.873528	32-degrees-F
-5.873528	320
-5.873528	320TR
-5.873528	3211
-5.873528	3247
-5.873528	325
-5.873528	325-degrees-C
-5.873528	327
-5.873528	328
-5.294833	33
-5.873528	33-1/2
-5.873528	33-1/3%
-5.873528	33-man
-5.873528	330
-5.873528	3300
-5.688745	332
-5.873528	334
-5.873528	337-degrees-C
-5.873528	33d
-4.725979	34	-0.06027195
-5.873528	34,000
-5.873528	34-hour
-5.873528	34.7
-5.873528	340-blast
-5.873528	340-degrees-C
-5.873528	340TR
-5.873528	34220
-5.873528	343
-5.873528	346
-5.497701	348	-0.3013381
-4.792926	35	-0.05085351
-5.873528	35%
-5.873528	35-foot
-5.873528	35-mm.-wide
-5.145109	350
-5.873528	350,000
-5.873528	3500
-5.873528	3505o
-5.873528	350th
-5.433186	353	-0.6559989
-5.873528	354
-5.873528	355
-5.873528	357
-5.048199	36
-5.873528	36-A
-5.873528	36-in.
-5.873528	36-year-old
-5.497701	360
-5.873528	360,000
-5.873528	361
-5.873528	362
-5.873528	3646
-5.873528	365
-5.873528	367
-5.688745	368(a)(1)
-5.873528	369
-5.873528	36th
-5.294833	37	-0.1461777
-5.873528	37,000
-5.873528	37,081
-5.873528	37,470
-5.873528	37,679
-5.873528	37-1/2
-5.873528	37-degrees
-5.873528	37-degrees-C
-5.873528	37-year-old
-5.873528	372
-5.688745	375
-5.688745	375-degrees-C
-5.873528	376
-5.873528	379,900
-5.873528	37th
-5.006806	38	-0.2421382
-5.873528	38*0
-5.873528	38-7
-5.873528	38-point
-5.873528	380-foot
-5.497701	381
-5.497701	381(a)
-5.873528	381(c)
-5.873528	381(c)(14)
-5.873528	381(c)(16)
-5.873528	381(c)(4)
-5.873528	381(c)(6)
-5.873528	381(c)(9)
-5.873528	385
-5.873528	387
-5.873528	389
-5.433186	39
-5.873528	39,000
-5.873528	39-year-old
-5.873528	390
-5.873528	390-foot
-5.873528	391
-5.873528	392
-5.873528	394
-5.873528	395
-5.873528	3:00
-5.873528	3:20
-5.873528	3:30
-5.873528	3:300
-5.873528	3:57
-5.873528	3MM
-5.433186	3rd
-3.734331	4	-0.4213908
-5.873528	4%
-5.873528	4'
-5.688745	4,000
-5.873528	4,000-foot
-5.873528	4,122,354
-5.873528	4,369
-5.873528	4,427
-5.873528	4,441
-5.873528	4,499,608
-5.873528	4,500
-5.873528	4,585
-5.873528	4,622,444
-5.873528	4,900
-5.873528	4-
-5.873528	4-0
-5.873528	4-1
-5.873528	4-1/2%
-5.873528	4-13
-5.873528	4-7/8
-5.497701	4-H
-5.873528	4-cell
-5.873528	4-d
-5.873528	4-day
-5.873528	4-for-5
-5.873528	4-homer
-5.688745	4-inch
-5.873528	4-month
-5.873528	4-passenger
-5.873528	4-under-par
-5.873528	4-year
-5.873528	4-year-old
-5.873528	4.0
-5.873528	4.00
-5.873528	4.1
-5.497701	4.2
-5.873528	4.21
-5.688745	4.3	-0.4778605
-5.873528	4.4
-5.873528	4.5
-5.873528	4.6
-5.873528	4.7
-5.873528	4.77
-5.873528	4.8
-5.873528	4/4
-4.446138	40	-0.1102301
-5.294833	40%
-5.093956	40,000
-5.873528	40,000,000
-5.873528	40-degrees-F
-5.873528	40-grain
-5.873528	40-year-old
-4.792926	400
-5.873528	400,000
-5.873528	400,000,000
-5.873528	400-401
-5.873528	400-kc.
-5.873528	400-lb.
-5.873528	400-pound
-5.873528	402
-5.873528	407
-5.006806	41	-0.1753044
-5.873528	41-8
-5.873528	410
-5.873528	410-degrees-C
-5.873528	412
-5.873528	412-413
-5.873528	415
-4.844079	42	-0.03699397
-5.873528	42,000
-5.873528	42-degrees-F.
-5.873528	42-inch
-5.688745	420
-5.873528	42d
-5.433186	43
-5.873528	43*0
-5.873528	43*0C
-5.873528	43*0C.
-5.873528	430,000
-5.873528	431
-5.873528	434
-5.688745	44
-5.873528	44,000
-5.688745	44-year-old
-5.873528	442
-5.873528	443
-5.873528	447
-4.902071	45	-0.1045873
-5.873528	45%
-5.688745	45-degree
-5.873528	45-degrees
-5.873528	45-passenger
-5.873528	45.6
-5.497701	450
-5.873528	450,000
-5.873528	450-mile-long
-5.873528	451
-5.873528	452
-5.093956	46
-5.873528	46%
-5.873528	46,000
-5.873528	462
-5.873528	463-degrees-C
-5.873528	469
-5.873528	46th
-5.093956	47
-5.873528	47.1%
-5.873528	47.6
-5.873528	470
-5.873528	470-degrees-C
-5.048199	48	-0.09694269
-5.873528	48''
-5.873528	48,000
-5.873528	48,500
-5.873528	480
-5.688745	49
-5.873528	49%
-5.873528	49*0
-5.873528	4911
-5.873528	492
-5.873528	495
-5.873528	499-520
-5.873528	49ers
-5.873528	49th
-5.873528	4:00
-5.873528	4:05
-5.873528	4:18
-5.688745	4:30
-5.873528	4:45
-5.145109	4th	-0.1250143
-3.89591	5	-0.2954159
-5.315227	5%
-5.294833	5,000
-5.873528	5,014
-5.873528	5,500
-5.873528	5-
-5.688745	5-1
-5.873528	5-1/2
-5.873528	5-3
-5.873528	5-3/4''
-5.873528	5-4
-5.873528	5-5
-5.873528	5-6
-5.873528	5-7
-5.873528	5-day
-5.873528	5-degrees-C
-5.873528	5-foot
-5.873528	5-game
-5.873528	5-mile
-5.873528	5-passenger
-5.873528	5-percent
-5.873528	5-run
-5.873528	5-to-1
-5.873528	5-to-2
-5.873528	5-to-3
-5.873528	5.1
-5.873528	5.3
-5.873528	5.4
-5.873528	5.4865771
-5.688745	5.5
-5.873528	5.6
-5.688745	5.7
-5.873528	5.8
-5.873528	5/16''
-5.873528	5/64''
-5.873528	5/8-inch
-4.262869	50	-0.1136744
-4.792926	50%	-0.1614941
-5.873528	50'
-5.873528	50,000
-5.873528	50,000,000
-5.873528	50-50
-5.873528	50-degrees
-5.688745	50-foot
-5.873528	50-inch
-5.497701	50-megaton	-0.3013875
-5.873528	50-percent
-5.873528	50-year
-5.873528	50-year-old
-4.844079	500
-5.873528	500's
-5.688745	500,000
-5.873528	500-mile
-5.497701	5000
-5.873528	5000-word
-5.873528	5031
-5.873528	505
-5.873528	508-yard
-5.873528	50th
-5.497701	51
-5.873528	510
-5.873528	511
-5.873528	512
-5.873528	514
-5.873528	514C
-5.873528	5155
-5.873528	51st
-5.497701	52
-5.873528	52-year
-5.873528	52-year-old
-5.873528	520
-5.873528	520-acre
-5.873528	525
-5.873528	526
-5.873528	52nd
-5.433186	53
-5.873528	53-year-old
-5.873528	532
-5.688745	54
-5.873528	54,320
-5.873528	54-17
-5.873528	540
-5.873528	540-K
-5.873528	541
-5.873528	542,250
-5.873528	543
-5.873528	545-yard
-5.873528	54th
-5.093956	55
-5.873528	55,000
-5.873528	55,987
-5.873528	553
-5.315227	56
-5.873528	56,000
-5.873528	56-yard
-5.873528	5612
-5.873528	562
-5.873528	565
-5.873528	566
-5.873528	56A
-5.048199	57	-0.1337278
-5.873528	57%
-5.873528	570
-5.873528	573
-5.873528	5777
-5.497701	58
-5.873528	58.8%
-5.873528	5835
-5.873528	5847
-5.873528	589
-5.873528	58th
-5.688745	59
-5.873528	59,780
-5.873528	59-cents
-5.873528	5:00
-5.873528	5:30
-5.873528	5th
-3.991294	6	-0.403122
-5.688745	6%
-5.873528	6'.7
-5.873528	6(j)
-5.433186	6,000
-5.873528	6,768
-5.873528	6-
-5.873528	6-1
-5.873528	6-1/2
-5.873528	6-12
-5.873528	6-2/3
-5.688745	6-3	-0.4568112
-5.873528	6-3-3
-5.873528	6-4-2
-5.873528	6-5
-5.873528	6-6
-5.873528	6-7
-5.873528	6-B
-5.873528	6-degrees-C
-5.873528	6-foot
-5.873528	6-foot-10
-5.873528	6-foot-3-inch
-5.497701	6-hr.
-5.873528	6-inch
-5.873528	6-ounce
-5.873528	6-passenger
-5.873528	6-year
-5.873528	6.2
-5.873528	6.3
-5.873528	6.4
-5.873528	6.5
-5.873528	6.6
-5.873528	6.9
-4.385441	60	-0.1111478
-5.873528	60%
-5.873528	60's
-5.873528	60*0C.
-5.688745	60,000
-5.873528	60-1
-5.873528	60-66
-5.873528	60-80
-5.873528	60-city
-5.873528	60-day
-5.873528	60-inch
-5.873528	60-month
-5.145109	600
-5.873528	600-degrees
-5.873528	600-mile
-5.873528	600-yard
-5.873528	6000
-5.873528	601
-5.873528	602.2
-5.873528	603
-5.873528	604,622
-5.873528	605
-5.873528	606
-5.873528	607
-5.873528	607-608
-5.873528	609
-5.497701	61	-0.2803494
-5.873528	61.2%
-5.873528	6124
-5.873528	613
-5.873528	619,000
-5.873528	61st
-5.873528	62
-5.873528	62-63
-5.873528	62-year-old
-5.433186	63
-5.873528	63,000,000
-5.873528	63-64
-5.873528	635
-5.873528	637
-5.873528	638,560
-5.873528	63d
-5.688745	64
-5.873528	64%
-5.873528	64-13
-5.873528	64-66
-5.873528	64-cent
-5.873528	64-page
-5.873528	642
-5.873528	643
-5.873528	645-acre
-5.873528	646
-4.934255	65
-5.873528	65%
-5.873528	65,000
-5.873528	65-degrees
-5.873528	65-year-old
-5.873528	650
-5.873528	66
-5.873528	66th
-5.873528	67
-5.873528	67-year-old
-5.873528	675
-5.873528	676
-5.873528	677
-5.315227	68
-5.873528	687.87
-5.873528	689-page
-5.294833	69	-0.225161
-5.873528	6934
-5.873528	694
-5.873528	695
-5.873528	6:00
-5.873528	6:15
-5.873528	6:30
-5.873528	6:35
-5.873528	6a
-5.315227	6th
-4.075071	7	-0.3784511
-5.873528	7%
-5.873528	7''
-5.873528	7,000
-5.873528	7,000,000
-5.873528	7,360,187
-5.873528	7,484,268
-5.873528	7,500
-5.873528	7,827
-5.315227	7-1
-5.688745	7-2
-5.873528	7-3
-5.873528	7-4
-5.873528	7-5
-5.873528	7-6
-5.873528	7-9
-5.873528	7-day
-5.873528	7-day-week
-5.873528	7-passenger
-5.873528	7-room
-5.873528	7.19
-5.873528	7.2
-5.497701	7.5
-5.873528	7.6%
-5.873528	7/16''
-5.873528	7/2
-4.667987	70
-5.688745	70%
-5.873528	70's
-5.497701	70,000
-5.873528	70,000,000
-5.873528	70,524
-5.873528	70-mile-long
-5.873528	70-year-old
-5.315227	700
-5.873528	700-mile
-5.873528	701
-5.873528	701st
-5.873528	7026
-5.873528	7034
-5.873528	704
-5.497701	707
-5.688745	7070
-5.497701	7070/7074
-5.873528	7074
-5.873528	70th
-5.048199	71	-0.0969769
-5.873528	71*&0C.
-5.873528	710
-5.048199	72
-5.873528	72-hole
-5.873528	725's
-5.873528	7287
-5.873528	72nd
-5.497701	73
-5.873528	734
-5.315227	74
-5.873528	74.1
-5.873528	742
-5.873528	742C
-4.747169	75	-0.07052211
-5.497701	75%
-5.688745	75,000
-5.873528	75,000-ton
-5.873528	75-minute
-5.497701	750
-5.873528	7599
-5.873528	75th
-5.433186	76
-5.873528	76-per-cent
-5.873528	76.7
-5.873528	760
-5.873528	762
-5.873528	764
-5.873528	767
-5.433186	77
-5.873528	770
-5.873528	78
-5.873528	78-79
-5.873528	78th
-5.873528	79,400
-5.873528	79-cents
-5.873528	790
-5.873528	795,586
-5.873528	798
-5.873528	7:00
-5.873528	7:10
-5.873528	7:25
-5.315227	7:30	-0.1762557
-5.873528	7:45
-5.873528	7:50
-5.873528	7A
-4.969018	7th	-0.240818
-4.022892	8	-0.3251263
-5.873528	8%
-5.294833	8,000
-5.873528	8,000,000
-5.873528	8,100
-5.873528	8,280
-5.873528	8,293
-5.873528	8,500
-5.873528	8-1/2-foot
-5.873528	8-10
-5.873528	8-4
-5.873528	8-Balls
-5.873528	8-b-2
-5.873528	8-channel
-5.873528	8-inch
-5.873528	8-mm
-5.873528	8-oz.
-5.873528	8-year-old
-5.873528	8.6
-5.873528	8.6-mm
-4.792926	80
-5.873528	80%
-5.873528	80's
-5.873528	80,000
-5.873528	80-degrees-C
-5.873528	80-hp
-4.934255	800	-0.2448787
-5.873528	800's
-5.688745	800,000
-5.873528	80th
-5.688745	81
-5.873528	81,000
-5.873528	817
-5.873528	82
-5.873528	821,220
-5.873528	823
-5.873528	825,000
-5.873528	828
-5.688745	83
-5.873528	836-901
-5.873528	83rd
-5.873528	84-foot
-5.873528	840,503
-5.048199	85	-0.2915434
-5.873528	85%
-5.873528	85-degrees
-5.873528	85-piece
-5.873528	85-student
-5.315227	86
-5.873528	86%
-5.873528	869
-5.873528	87
-5.873528	87-1/2
-5.873528	87-31
-5.873528	870,000
-5.873528	871
-5.873528	87th
-5.873528	88
-5.873528	88's
-5.873528	883,000
-5.873528	885
-5.873528	8861
-5.873528	892
-5.873528	899
-5.497701	8:30
-5.688745	8th
-4.255807	9	-0.3866881
-5.873528	9'
-5.873528	9,273
-5.873528	9,748,000
-5.873528	9,910,741
-5.873528	9-1/2
-5.873528	9-11
-5.873528	9-6
-5.873528	9-7
-5.873528	9.3
-5.873528	9.4
-5.873528	9.8
-5.873528	9/32''
-5.006806	90
-5.497701	90%	-0.5876473
-5.873528	90,000
-5.873528	90-day
-5.873528	90-degree
-5.688745	90-degrees
-5.873528	90-degrees-F
-5.688745	900
-5.873528	900,000
-5.873528	900-calorie
-5.873528	900-student
-5.873528	91
-5.688745	92
-5.873528	92.5
-5.873528	920
-5.873528	923,076
-5.873528	9230
-5.688745	93
-5.873528	9329
-5.873528	94
-5.873528	940Y
-5.873528	944
-5.873528	949
-5.315227	95
-5.873528	950
-5.873528	954
-5.433186	96
-5.873528	960-mc
-5.873528	963
-5.497701	97
-5.688745	98
-5.873528	989
-5.145109	99	-0.1234208
-5.873528	99.1
-5.873528	9:00
-5.873528	9:30
-5.873528	9:40
-5.873528	9:47
-5.873528	9N
-5.873528	9a
-5.873528	9b
-5.873528	9e
-5.294833	9th
-2.819285	:	-0.4571961
-5.873528	:35.3
-2.332362	;	-3.693218
-1.335482	</s>
-99	<s>	-0.6345215
-2.46534	?	-3.56074
-2.954077	A	-0.08446881
-5.433186	A's
-5.873528	A-1
-5.873528	A-26
-5.873528	A-bombs
-4.006806	A.	-0.08522309
-5.873528	A.A.U.
-5.873528	A.A.U.'s
-5.688745	A.B.
-5.048199	A.D.
-5.873528	A.I.D.
-5.873528	A.K.C.
-4.934255	A.L.A.M.
-4.969018	A.M.	-0.05820442
-5.497701	A.M.A.
-5.873528	A/3
-5.873528	A135
-5.873528	A5
-5.873528	AAA
-5.873528	AAb/
-5.873528	AB
-5.873528	ABC
-5.433186	ABO
-5.873528	ACS
-5.873528	ACTH
-5.873528	AD
-5.145109	ADC
-5.873528	AEC
-5.873528	AEC's
-5.873528	AF
-5.433186	AFL-CIO	-0.3764576
-5.873528	AH6
-5.048199	AIA	-0.3869167
-5.873528	AIChE
-5.497701	AID
-5.873528	AID's
-5.873528	AIEE
-5.433186	AIMO
-5.873528	AL
-5.093956	AM	-0.1092176
-5.873528	AMA
-4.902071	AP	-1.175152
-5.873528	ARF
-5.873528	ASDIC
-5.873528	ASME
-5.873528	ASPIS
-5.873528	ASPR
-5.873528	ASW
-5.873528	ATP
-5.873528	AVC
-5.433186	AWOC
-5.873528	Aaa-ee
-5.873528	Aah
-5.294833	Aaron
-5.873528	Ab1,040
-5.873528	Ab4,500
-5.873528	Abandon
-5.873528	Abandoning
-5.873528	Abatuno
-5.873528	Abbas
-5.873528	Abbas's
-5.688745	Abbe
-5.873528	Abbe-Direct
-5.873528	Abbe-Scotch
-5.315227	Abbey
-5.873528	Abbot
-5.873528	Abbott
-5.873528	Abdallah
-5.873528	Abe
-4.747169	Abel
-5.873528	Abel's
-5.873528	Abell
-5.873528	Abelson
-5.873528	Abide
-5.873528	Abigail
-5.873528	Abilene
-5.873528	Ablard
-5.873528	Abner
-5.873528	Abnormal
-5.688745	Abolition
-5.873528	Abolitionists
-4.366957	About	-0.06452824
-4.81775	Above	-0.2752543
-5.873528	Aboveground
-5.873528	Abra
-5.315227	Abraham
-5.873528	Abrams
-5.873528	Abreaction
-5.873528	Absent-minded
-5.688745	Abstract
-5.688745	Abstraction
-5.873528	Abstractionists
-5.873528	Abstractions
-5.873528	Abstracts
-5.873528	Abuse
-5.873528	Abyssinians
-5.873528	Academicianship
-4.792926	Academy	-0.1514562
-5.873528	Acadia
-5.873528	Acapulco
-5.497701	Accacia
-5.873528	Accademia
-5.873528	Accardo
-5.873528	Accept
-5.873528	Acceptable
-5.873528	Acceptance
-5.873528	Accepted
-5.873528	Accident
-5.873528	Accidental
-5.873528	Accompanied
-4.60104	According	-1.437843
-4.769445	Accordingly	-0.7805815
-5.873528	Accounting
-5.873528	Accounts
-5.873528	Accuracy
-5.873528	Ace
-5.873528	Aces
-5.688745	Acey
-5.873528	Achaeans
-5.873528	Achaeans'
-5.873528	Acheson
-5.873528	Acheson's
-5.145109	Achievement
-5.873528	Achieving
-5.873528	Achilles
-5.873528	Ackerly
-5.873528	Acorns
-5.873528	Acourse
-5.873528	Acoustical
-5.873528	Acquiring
-5.873528	Acreage
-5.873528	Acres
-5.315227	Acropolis	-0.1586152
-5.294833	Across	-0.8092083
-3.983741	Act	-0.3179958
-5.145109	Acting
-5.873528	Acting-President
-5.497701	Action
-5.873528	Actions
-5.315227	Active
-5.873528	Actively
-5.497701	Activities
-5.873528	Activity
-5.873528	Actor-Crooner
-5.873528	Actress
-5.873528	Acts
-5.688745	Actual
-4.543048	Actually	-0.6366647
-5.873528	Ad
-4.81775	Ada	-0.182798
-5.497701	Ada's
-5.873528	Adagio
-5.873528	Adair
-5.873528	Adair's
-4.468415	Adam	-0.1332266
-5.873528	Adam's
-5.873528	Adame
-5.873528	Adamo
-4.435415	Adams	-0.09692908
-5.688745	Adams'
-5.873528	Adams's
-5.873528	Adamson
-5.873528	Adaptaplex
-5.873528	Adaptation
-5.873528	Adaptations
-5.873528	Adcock
-5.145109	Add
-5.873528	Addabbo
-5.873528	Added
-5.873528	Addison
-5.873528	Addition
-4.902071	Additional
-5.873528	Additionally
-5.873528	Additive
-5.873528	Address
-5.873528	Ade
-5.873528	Adele
-5.873528	Adelos
-5.497701	Adenauer
-5.873528	Adenauer's
-5.873528	Adequate
-5.873528	Aderholds
-5.873528	Adherence
-5.315227	Adios
-5.873528	Adios-Direct
-5.873528	Adios-On
-5.873528	Adios-Rena
-5.873528	Adios-Trustful
-5.873528	Adirondack
-5.873528	Adirondacks
-5.873528	Adjoining
-5.048199	Adjusted	-0.6989545
-5.873528	Adjusting
-5.688745	Adjustment
-5.294833	Adlai	-0.5681183
-5.688745	Adler
-5.873528	Admassy
-5.873528	Admassy's
-4.28477	Administration	-0.1662652
-5.688745	Administration's
-5.497701	Administrative
-5.873528	Administrator
-5.873528	Admirably
-5.873528	Admiralty
-5.873528	Admissions
-5.873528	Admitting
-5.873528	Adnan
-5.497701	Ado	-0.298538
-5.873528	Adolescents
-5.497701	Adolf
-5.873528	Adolphus
-5.315227	Adoniram
-5.873528	Adonis
-5.873528	Adoption
-5.873528	Adrar
-5.497701	Adrian
-5.873528	Adrianople
-5.688745	Adriatic
-5.873528	Adult
-5.873528	Adultery
-5.873528	Adults
-5.688745	Advance
-5.873528	Advanced
-5.873528	Advancement
-5.873528	Advances
-5.873528	Advantages
-5.873528	Adventists
-5.873528	Adventists'
-5.873528	Adventures
-5.873528	Adverbial
-5.873528	Advertiser
-5.873528	Advertisers
-5.873528	Advertising
-5.873528	Advice
-5.873528	Advise
-5.873528	Advisors
-4.902071	Advisory	-0.6691933
-5.433186	Advocate
-4.872108	Aegean	-0.09658652
-5.873528	Aerobacter
-5.873528	Aeronautics
-5.497701	Aerospace	-0.6011943
-5.873528	Aeschbacher
-5.873528	Aeschbacher's
-5.497701	Aeschylus
-3.050812	Af	-0.5649784
-5.688745	Af-fold
-5.873528	Af-inch
-5.497701	Af-stage	-0.6011115
-5.873528	Af-values
-5.873528	Affaire
-5.873528	Affaires
-4.705776	Affairs	-0.2424881
-5.873528	Affect
-5.873528	Affirmatively
-5.873528	Afghan
-5.873528	Afghans
-5.873528	Afraid
-5.873528	Afranio
-4.394986	Africa	-0.459832
-4.633225	African	-0.05316249
-5.497701	Africans
-5.873528	Afrika
-5.873528	Afrique
-5.497701	Afro-Asian
-5.873528	Afro-Cuban
-3.701846	After	-0.2984134
-5.873528	Afternoon
-5.873528	Afterward
-5.688745	Afterwards
-4.457134	Again	-0.366767
-5.145109	Against	-0.1015737
-5.873528	Agamemnon
-5.873528	Agamemnon's
-5.873528	Agatha
-4.969018	Age
-5.873528	Agee
-5.873528	Agencies
-5.145109	Agency	-0.1040113
-5.873528	Agents
-4.934255	Ages	-0.2289905
-5.873528	Aggie
-5.873528	Aggies
-5.873528	Aggregate
-5.873528	Agnes
-5.873528	Agnese
-5.873528	Agonale
-5.873528	Agone
-5.688745	Agreeable	-0.4778612
-4.633225	Agreement	-0.202852
-5.688745	Agricultural
-5.006806	Agriculture	-0.06618158
-5.873528	Agriculture's
-5.873528	Agrippa
-5.873528	Agrobacterium
-4.969018	Ah	-0.2197706
-5.688745	Ahead
-5.873528	Ahm
-5.873528	Ahmad
-5.873528	Ahmad's
-5.688745	Ahmet
-5.873528	Ahmiri
-5.873528	Ahrens
-5.873528	Ai
-5.315227	Aid
-5.873528	Aida
-5.873528	Aide
-5.873528	Aiding
-5.433186	Aids	-0.2149243
-5.873528	Aiken
-5.873528	Aikin
-5.873528	Ailey
-5.873528	Ailey's
-5.873528	Aim
-5.497701	Ain't
-5.873528	Ainsley
-5.873528	Ainsworth
-4.468415	Air	-0.5384415
-5.873528	Air-drifts
-5.315227	Aircraft
-5.873528	Aircraft's
-5.873528	Airedale
-5.873528	Airline's
-5.688745	Airlines
-5.873528	Airmail
-5.873528	Airpark
-5.145109	Airport	-0.2762676
-5.873528	Airways
-5.873528	Airy
-3.976316	Aj	-1.5771
-5.873528	AjA
-5.873528	AjB
-5.873528	Akron
-4.872108	Al
-5.873528	Al's
-5.294833	Ala.	-0.225161
-4.769445	Alabama	-0.09300856
-5.873528	Alabamans
-5.873528	Alabamas
-5.873528	Alabamian
-5.873528	Alacrity
-5.873528	Alai
-5.873528	Alain
-5.873528	Alamein
-5.873528	Alamo
-5.873528	Alamogordo
-5.433186	Alan
-5.873528	Alarmed
-5.497701	Alas	-0.5801465
-4.747169	Alaska	-0.4244522
-5.497701	Alastor
-5.873528	Alba
-5.873528	Albacore
-5.688745	Albania
-5.873528	Albanian
-5.873528	Albanians
-5.093956	Albany	-0.08819937
-5.873528	Albers
-4.60104	Albert	-0.08537664
-5.688745	Albright
-5.873528	Albright's
-5.873528	Albrights'
-5.873528	Alcibiades
-5.873528	Alcinous'
-5.873528	Alcohol
-5.873528	Alcorn
-5.873528	Alcott's
-5.873528	Alden
-5.873528	Aldermen
-5.873528	Aldo
-5.873528	Aldridge
-4.650259	Alec
-5.433186	Alec's
-5.873528	Alemagna
-5.873528	Alessio
-4.60104	Alex
-5.048199	Alex's
-4.667987	Alexander	-0.1040038
-5.873528	Alexander's
-5.873528	Alexandre
-5.497701	Alexandria
-5.873528	Alexei
-5.873528	Alexeyeva
-5.873528	Alexis
-5.873528	Alf
-5.873528	Alfa
-5.873528	Alfonso
-4.332195	Alfred	-0.06775396
-5.688745	Alfred's
-5.688745	Alfredo
-5.873528	Alger
-5.873528	Algeria
-5.433186	Algerian
-5.688745	Algol
-5.315227	Alice
-5.873528	Alienus
-5.873528	Aligning
-5.873528	Alison
-5.873528	Alix
-5.873528	Alix's
-3.667987	All	-0.2269642
-5.873528	All-Star
-5.873528	All-weather
-5.873528	Alla
-5.497701	Allan
-5.873528	Allay
-5.873528	Alleghenies
-5.873528	Allegretti
-5.873528	Allegro
-5.873528	Allemands
-4.747169	Allen	-0.02474776
-5.873528	Allen's
-5.873528	Alley
-5.315227	Alliance
-4.769445	Allied	-0.1359723
-5.315227	Allies
-5.873528	Allison
-5.873528	Allison's
-5.873528	Allocation
-5.873528	Allotments
-5.873528	Allow
-5.873528	Allso
-5.873528	Almaden
-5.497701	Almagest
-5.873528	Almanac
-5.433186	Almighty
-5.873528	Almond
-5.873528	Almonds
-4.650259	Almost
-5.497701	Alone
-4.934255	Along	-0.2364271
-5.873528	Alors
-5.873528	Aloud
-5.873528	Alpers
-5.433186	Alpert
-5.873528	Alperts
-5.315227	Alpha	-0.1662459
-5.873528	Alpharetta
-5.873528	Alphonse
-5.873528	Alps
-4.872108	Already	-0.03871644
-5.688745	Alsatian
-5.873528	Alsatians
-5.873528	Alsing
-4.228655	Also	-0.351335
-5.688745	Alsop
-5.873528	Altairians
-5.873528	Altar
-5.497701	Altenburg
-5.873528	Alterman
-5.873528	Alternate
-5.873528	Althaus
-5.873528	Althea
-3.980013	Although	-0.3800219
-5.873528	Alto
-5.497701	Altogether
-5.873528	Alton
-5.433186	Alumni
-5.873528	Alusik
-5.873528	Alusik's
-5.873528	Alva
-5.688745	Alvarez
-5.873528	Alvear
-5.315227	Alvin
-5.873528	Alvise
-5.433186	Always
-5.873528	Alwin
-5.688745	Am	-0.4763233
-5.497701	Amadee
-5.873528	Amadee's
-5.873528	Amado
-5.873528	Amaral
-5.688745	Amateur
-5.873528	Amazon
-4.934255	Ambassador	-0.06330293
-5.873528	Ambassador-at-Large
-5.873528	Ambassador-designate
-5.873528	Ambler
-5.873528	Ambrose
-5.873528	Ambulances
-5.873528	Ambushes
-5.873528	Ameaux
-5.873528	Amelia's
-4.902071	Amen	-0.4263987
-5.315227	Amendment
-5.688745	Amendments
-5.873528	Amenitskii
-3.776357	America	-0.3643908
-4.725979	America's
-3.307836	American	-0.08313482
-5.873528	American's
-5.873528	American-Jewish
-5.688745	American-Negro	-0.47786
-5.873528	American-trained
-5.433186	Americana
-4.093956	Americans	-0.1855092
-5.873528	Americas
-5.873528	Amicam
-5.873528	Amici
-5.873528	Amid
-5.873528	Amis
-5.873528	Ammunition
-5.873528	Amonasro
-4.307836	Among	-0.3912666
-5.873528	Amory
-5.688745	Amos
-5.873528	Amp
-5.873528	Amra
-5.688745	Amsterdam
-5.873528	Amt
-4.872108	Amy	-0.041154
-3.778686	An	-0.07802147
-5.873528	An'
-5.873528	Ana
-5.873528	Anabaptist
-5.873528	Anabaptists
-5.873528	Anabel
-5.873528	Anaconda
-5.873528	Analogously
-5.873528	Analyses
-5.433186	Analysis	-0.2015588
-5.873528	Analysts
-5.433186	Analytical	-0.2220913
-5.873528	Analytrol
-5.873528	Analyzer
-5.873528	Anania
-5.873528	Anatole
-5.873528	Anatomically
-5.873528	Ancel
-5.873528	Anchorite
-5.315227	Ancient
-5.873528	Ancistrodon
-3.151122	And	-0.3207897
-5.873528	Andean
-5.873528	Anderlini
-5.873528	Anders
-5.873528	Andersen
-4.934255	Anderson	-0.05156711
-5.497701	Anderson's
-5.688745	Andover
-5.688745	Andre
-5.497701	Andrea	-0.3013994
-4.792926	Andrei
-5.873528	Andrei's
-5.294833	Andrena
-5.873528	Andres
-4.969018	Andrew	-0.07924206
-5.873528	Andrews
-5.688745	Androfski
-5.873528	Andromache
-4.969018	Andrus
-5.873528	Andruses
-4.529685	Andy	-0.02387465
-5.497701	Andy's
-5.093956	Angel
-5.688745	Angel's
-4.41473	Angeles	-0.2136285
-5.688745	Angeles'
-5.873528	Angelico
-5.497701	Angelina
-5.873528	Angell
-5.145109	Angelo
-5.873528	Angelo's
-4.902071	Angels	-0.1252229
-5.873528	Anger
-4.81775	Angie	-0.1300772
-5.873528	Anglia
-5.006806	Anglican
-5.873528	Anglicanism
-5.873528	Anglicans
-5.873528	Anglo-Jewish
-5.873528	Anglo-Protestant
-4.705776	Anglo-Saxon	-0.1119315
-5.873528	Anglo-Saxons
-5.873528	Anglophilia
-5.873528	Anglophobia
-5.688745	Angola
-5.688745	Angry
-5.873528	Anhalt-Bernburg
-5.873528	Anhwei
-5.294833	Animals	-0.1252252
-5.873528	Aniseikonic
-5.873528	Anita
-5.873528	Ankara
-4.585801	Ann	-0.07422693
-5.873528	Ann's
-5.315227	Anna
-5.873528	Annamorena
-5.294833	Annapolis	-0.2217714
-4.769445	Anne	-0.09966162
-5.688745	Anne's
-5.873528	Annie
-5.873528	Annisberg
-5.873528	Anniston
-5.497701	Anniversary
-5.497701	Annual
-4.043877	Another	0.0123572
-5.873528	Anouilh
-5.873528	Anselm's
-5.873528	Anselmo
-5.873528	Ansley
-5.873528	Anson
-5.873528	Answer
-5.873528	Ant
-5.433186	Anta
-5.873528	Antarctica
-5.873528	Antares
-5.873528	Anthem
-5.873528	Anthology
-4.844079	Anthony	-0.05803861
-5.873528	Anthony's
-5.873528	Anthropologists
-5.873528	Anthropology
-5.873528	Anti-A
-5.873528	Anti-Americanism
-5.873528	Anti-Communist
-5.873528	Anti-Semite
-5.873528	Anti-recession
-5.873528	Anticipated
-5.873528	Anticipating
-5.873528	Antietam
-5.873528	Antigone
-5.873528	Antinomians
-5.873528	Antiquity
-5.873528	Antisubmarine
-5.873528	Antithyroid
-5.688745	Antler
-5.873528	Antoine
-5.688745	Antoine's
-5.873528	Antoinette
-5.873528	Anton
-5.873528	Antone
-5.873528	Antonini
-5.315227	Antonio
-5.873528	Antony
-5.873528	Ants
-5.688745	Anxiety
-5.873528	Anxious
-4.435415	Any
-5.688745	Anybody
-5.688745	Anyhow
-5.006806	Anyone	-0.1373965
-5.873528	Anyone's
-4.934255	Anything
-5.294833	Anyway	-0.5470733
-5.873528	Anywhere
-5.873528	Anzilotti
-5.873528	Aouelloul
-5.873528	Apache
-5.497701	Apaches
-5.873528	Apalachicola
-5.873528	Aparicio
-5.145109	Apart	-0.5942845
-5.873528	Apartment
-5.873528	Apartments
-5.873528	Apergillus
-5.873528	Aphrodite
-5.873528	Apocalypse
-5.873528	Apocalyptic
-5.873528	Apocrypha
-5.873528	Apollinaire
-5.497701	Apollo
-5.873528	Apollo's
-5.873528	Apollonian
-5.873528	Apologia
-5.873528	Apologie
-5.873528	Apologies
-5.873528	Apology
-5.873528	Apostles
-5.873528	App
-5.873528	App.
-5.873528	Appalachian
-5.873528	Appalachians
-5.873528	Apparatus
-5.873528	Apparel
-4.747169	Apparently	-0.1283688
-5.433186	Appeal
-5.315227	Appeals
-5.048199	Appendix
-5.873528	Appendixes
-5.873528	Apple
-5.873528	Apples
-5.873528	Appleton
-5.497701	Application	-0.2878502
-5.873528	Applications
-5.873528	Applying
-5.873528	Appointment
-5.873528	Apprehensively
-5.873528	Apprentice
-5.873528	Approach
-5.873528	Approached
-5.873528	Approaching
-5.873528	Appropriate
-5.873528	Appropriately
-5.873528	Appropriation
-5.873528	Appropriations
-5.688745	Approved
-5.294833	Approximately
-4.20935	April	-0.1265708
-5.873528	April-June
-5.873528	Apropos
-5.873528	Aquidneck
-5.873528	Aquinas
-5.873528	Arab
-5.873528	Arabia
-5.873528	Arabian
-5.873528	Arabian-American
-5.873528	Arabians
-5.433186	Arabic
-5.873528	Arabs
-5.873528	Arabs'
-5.873528	Araby
-5.873528	Aransas
-5.873528	Arata
-5.873528	Arbeitskommando
-5.873528	Arbitrary
-5.688745	Arbogast
-5.873528	Arbor
-5.433186	Arbuckle
-5.873528	Arbuckle's
-5.873528	Arch
-5.873528	Archaeology
-5.688745	Archangel
-5.315227	Archbishop	-0.4415669
-5.873528	Archbishops'
-5.873528	Archimedes
-5.873528	Archipelago
-5.688745	Architect
-5.873528	Archives
-5.873528	Archuleta
-5.873528	Arco
-5.497701	Arctic
-5.688745	Arden
-5.873528	Ardent
-4.307836	Are	-0.5882301
-5.433186	Area
-5.873528	Areas
-5.497701	Aren't	-0.6003554
-5.873528	Arenula
-5.873528	Arequipa
-5.873528	Ares
-5.873528	Argentina
-5.688745	Arger
-4.934255	Argiento
-5.873528	Argive
-5.688745	Argon
-5.873528	Argonauts
-5.873528	Argos
-5.873528	Arhat
-5.873528	Arhats
-5.688745	Ariadne
-5.873528	Arianism
-5.873528	Arianist
-5.873528	Arianists
-5.433186	Aricaras
-5.873528	Arigato
-5.873528	Arimathea
-5.873528	Aristide
-5.873528	Aristotelean-Thomistic
-5.873528	Aristotelian
-4.725979	Aristotle
-5.315227	Aristotle's
-5.688745	Arithmetic
-5.433186	Ariz.	-0.6349718
-5.093956	Arizona	-0.08819937
-5.873528	Arkabutla
-4.792926	Arkansas	-0.1408212
-5.873528	Arkansas'
-5.873528	Arleigh
-4.934255	Arlen	-0.1792524
-5.873528	Arlen's
-5.873528	Arlene
-5.497701	Arlington
-5.688745	Arm
-5.873528	Armada's
-5.873528	Armageddon
-5.873528	Armbro
-4.60104	Armed	-1.143559
-5.873528	Armenian
-5.873528	Armentieres
-5.873528	Armide
-5.873528	Armies
-5.873528	Armisteads
-5.873528	Armistice
-5.873528	Armond
-5.873528	Armory
-5.873528	Armour
-5.433186	Arms
-5.315227	Armstrong
-4.184875	Army	-0.1542925
-5.433186	Army's
-4.769445	Arnold	-0.1359599
-5.873528	Arnold's
-5.873528	Arnold-Foster
-5.433186	Arnolphe
-5.315227	Around
-5.873528	Aroused
-5.315227	Arp
-5.873528	Arrack
-5.873528	Arragon
-5.873528	Arrange
-5.873528	Arrangement
-5.873528	Arrangements
-5.873528	Arranging
-5.873528	Arrington
-5.688745	Arriving
-5.873528	Arrow
-5.873528	Arrowhead
-5.873528	Arshinkoff
-4.686471	Art
-5.873528	Art's
-5.497701	Arte
-5.873528	Arte's
-5.873528	Artemis
-5.873528	Arterial
-5.873528	Arteries
-5.873528	Arthritis
-4.366957	Arthur	-0.01684877
-5.873528	Arthur's
-4.705776	Article	-0.3878844
-5.873528	Articles
-5.145109	Artie	-0.20336
-5.873528	Artificer
-5.688745	Artillery
-5.873528	Artisans
-5.873528	Artist
-5.873528	Artistic
-5.006806	Artists	-0.06957126
-5.873528	Artists'
-5.873528	Artkino
-4.667987	Arts	-0.04766975
-5.873528	Artur
-5.873528	Arturo
-5.433186	Arundel
-5.873528	Arvey
-3.340628	As	-0.4741781
-5.873528	Asch
-5.873528	Aschenbach
-5.873528	Ash
-5.873528	Ash-Can
-5.873528	Ashamed
-5.873528	Asher
-5.873528	Asheville
-5.873528	Ashikaga
-5.873528	Ashley
-5.873528	Ashman
-5.873528	Ashmolean
-4.424949	Asia	-0.2688772
-5.294833	Asian
-5.873528	Asians
-5.873528	Asiatic
-5.048199	Aside	-0.9984694
-5.873528	Asilomar
-5.873528	Asimov's
-5.006806	Ask	-0.08722854
-4.934255	Asked
-5.873528	Asks
-5.873528	Asleep
-5.873528	Aspects
-5.873528	Aspencade
-5.873528	Aspencades
-5.873528	Ass'n
-5.873528	Ass'ns'
-5.873528	Assam
-5.873528	Assassination
-5.873528	Assemble
-5.433186	Assemblies	-0.6424726
-4.585801	Assembly	-0.06309046
-5.873528	Asser
-5.873528	Asses
-5.873528	Assessment
-5.873528	Assessors
-5.873528	Assign
-5.873528	Assimilation
-5.873528	Assiniboia
-5.873528	Assiniboine
-5.873528	Assist
-5.873528	Assistance
-4.934255	Assistant	-0.07255889
-5.873528	Assisting
-5.873528	Assn.
-5.497701	Associate
-5.497701	Associated
-5.873528	Associates
-4.1137	Association	-0.4740095
-5.688745	Associations
-5.873528	Assonance
-5.873528	Assume
-5.497701	Assuming
-5.688745	Assumption
-5.873528	Assuredly
-5.873528	Assyrian
-5.873528	Assyriology
-5.873528	Astarte
-5.873528	Asteria
-5.873528	Asteroidal
-5.873528	Astin
-5.873528	Astor
-5.873528	Astra
-5.873528	Astwood
-5.873528	Asylum
-3.47649	At	-0.5330346
-5.873528	Aterman
-5.873528	Ath.
-4.934255	Athabascan	-0.05156711
-5.873528	Athalie
-5.873528	Athearn
-5.873528	Athena
-5.873528	Athenian
-5.497701	Athenians
-5.294833	Athens
-5.873528	Athlete
-5.497701	Athletic
-5.688745	Athletics
-5.873528	Atkinson
-4.50413	Atlanta	-0.2705951
-5.497701	Atlanta's
-5.873528	Atlantes
-4.446138	Atlantic	-0.1847938
-5.873528	Atlantica
-5.873528	Atlantis
-4.969018	Atlas
-5.873528	Atlee
-5.145109	Atomic	-0.2039459
-5.873528	Atonement
-5.873528	Atreus
-5.873528	Atta
-5.873528	Attack
-5.873528	Attacks
-5.873528	Attakapas
-5.873528	Attempts
-5.688745	Attendance
-5.873528	Attention
-5.873528	Attic
-5.873528	Attica
-5.873528	Attilio
-5.873528	Attitude
-5.873528	Attlee
-5.873528	Attopeu
-4.479997	Attorney	-0.4889533
-5.873528	Attorney's
-5.688745	Attorneys
-5.873528	Attributes
-5.873528	Attu
-5.497701	Atty.	-0.6011884
-5.873528	Atwells
-5.873528	Auberge
-5.873528	Aubr.
-5.873528	Aubrey's
-5.873528	Auburn
-5.315227	Auditorium
-5.873528	Auditors
-5.873528	Audits
-5.873528	Audrey
-5.433186	Audubon	-0.2220792
-5.873528	Auerbach's
-5.873528	Auf
-4.650259	Aug.	-0.2770368
-4.366957	August	-0.05813038
-5.315227	Augusta
-5.873528	Augusta's
-5.873528	Augustan
-5.873528	Augustin
-5.688745	Augustine
-5.873528	Augustine's
-5.688745	Augustus
-4.969018	Aunt
-5.688745	Auntie
-5.873528	Aurelius
-5.433186	Aureomycin	-0.3973646
-5.873528	Aurora
-5.873528	Auschwitz
-4.792926	Austin	-0.2799791
-5.873528	Austin's
-5.006806	Australia	-0.1688423
-5.093956	Australian
-5.873528	Australites
-5.497701	Austria
-5.497701	Austrian
-5.873528	Authenticated
-5.497701	Author	-0.2878502
-5.688745	Authorities
-5.048199	Authority
-5.688745	Authority's
-5.873528	Auto
-5.873528	Auto-Europe
-5.873528	Autobiography
-5.048199	Autocoder	-0.09616804
-5.873528	Autocollimator
-5.688745	Autocracies
-5.873528	Automatic
-5.873528	Automatically
-5.294833	Automobile
-5.873528	Autos
-5.873528	Autosuggestibility
-5.873528	Auxiliaries
-5.873528	Auxiliary
-5.093956	Av.	-0.5911898
-5.433186	Available
-5.873528	Avant-garde
-4.934255	Ave.	-0.6157712
-5.873528	Aventine
-5.873528	Aventino
-4.468415	Avenue	-0.2050452
-5.688745	Average
-5.873528	Averages
-5.873528	Averell
-5.873528	Avery
-5.688745	Aviation
-5.873528	Avis
-5.873528	Aviv
-5.873528	Avocados
-5.873528	Avoid
-5.873528	Avoiding
-5.873528	Avon
-5.873528	Avowed
-5.873528	Aw
-5.873528	Awake
-5.873528	Awakening
-5.294833	Award
-5.688745	Away
-5.873528	Awkwardly
-5.873528	Ax
-5.873528	Axioms
-5.497701	Axis	-0.301375
-5.873528	Aye-yah-ah-ah
-5.873528	Aylesbury
-5.873528	Ayres'
-5.873528	Aysshom
-5.873528	Ayub
-5.873528	Azerbaijan
-5.873528	Azusa
-4.043877	B	-0.4433952
-4.725979	B'dikkat
-5.873528	B'dikkat's
-5.873528	B's
-5.873528	B-47
-5.873528	B-47's
-5.093956	B-52	-0.1077337
-5.873528	B-52's
-5.873528	B-52H
-5.873528	B-52s
-5.873528	B-58
-5.315227	B-70
-4.167385	B.	-0.09253181
-5.688745	B.'s
-5.873528	B.A.
-5.873528	B.B.C.
-5.873528	B.B.C.'s
-4.747169	B.C.	-0.1329535
-5.873528	B.D.
-5.873528	B.S.
-5.873528	B.t.u./sq.
-5.873528	B70
-5.497701	BAM	-0.3013994
-5.688745	BBB
-5.873528	BCD
-5.873528	BG
-5.873528	BGS
-5.873528	BMEWS
-5.873528	BMT
-4.81775	BOD	-0.1303069
-5.873528	BOD's
-5.873528	BOD/day
-5.873528	BOD/day/1,000
-5.873528	BOD/day/acre
-5.873528	BSN
-5.315227	BTU
-5.873528	BTU's
-5.433186	BW
-5.873528	Babatunde
-5.873528	Babbitt
-5.873528	Babcock
-5.145109	Babe	-0.2898796
-5.873528	Babel
-5.873528	Babin
-5.873528	Babin-Festival
-5.433186	Baby	-0.2192333
-5.873528	Babylon
-5.873528	Babylonian
-5.873528	Babylonians
-5.873528	Bacchus
-5.873528	Bach
-5.873528	Bachelor
-5.873528	Bacillus
-4.902071	Back	-0.05983724
-5.873528	Backbends
-5.873528	Background
-5.873528	Backs
-5.873528	Backstage
-5.873528	Backstairs
-5.873528	Backstitch
-5.873528	Backstitching
-5.873528	Backward
-5.873528	Bacon
-5.873528	Bacterial
-5.688745	Bad
-5.873528	Baden-Baden
-5.873528	Badlands
-5.873528	Badly
-5.873528	Badrawi
-5.873528	Badura-Skoda-Vienna
-5.433186	Baer
-5.873528	Baffin
-5.873528	Bafflers
-5.873528	Bagatelles
-5.873528	Bagh
-5.873528	Bagley
-5.873528	Bah
-5.873528	Bahi
-5.873528	Bahia
-5.873528	Baileefe
-5.688745	Bailey
-5.688745	Bailly
-5.873528	Baines
-5.497701	Baird
-5.873528	Bait
-5.093956	Bake
-5.873528	Bake-Off
-5.873528	Bake-off
-4.51672	Baker	-0.1469995
-5.873528	Bakersfield
-5.873528	Bakhtiari
-5.873528	Baku
-5.873528	Bal
-5.433186	Balafrej
-5.873528	Balaguer
-5.873528	Balaguer's
-5.873528	Balanced
-5.873528	Balcolm
-5.873528	Bald
-5.873528	Baldness
-5.497701	Baldrige
-5.873528	Baldwin
-5.873528	Baldy
-5.873528	Balenciaga
-5.873528	Bales
-5.873528	Bali
-5.873528	Balkan
-5.873528	Balkanize
-5.873528	Balkanizing
-5.873528	Balkans
-5.093956	Ball
-5.873528	Ball's
-5.873528	Ballad
-5.873528	Ballard
-5.873528	Ballestre
-4.81775	Ballet	-0.08133443
-5.873528	Ballets
-5.873528	Ballistic
-5.873528	Balloon
-5.873528	Ballroom
-5.688745	Baltic
-4.725979	Baltimore	-0.1907082
-5.873528	Baltimore's
-5.873528	Baltimorean
-5.873528	Balzac
-5.873528	Banbury
-5.873528	Bancroft
-5.093956	Band	-0.3280959
-5.873528	Bandaging
-5.873528	Bandish
-5.873528	Bandon
-5.873528	Bandstand
-5.873528	Banfield
-4.650259	Bang-Jensen	-0.1758882
-5.315227	Bang-Jensen's
-5.873528	Bangkok
-5.873528	Bangles
-5.873528	Bangs
-5.873528	Bani
-5.873528	Banjo
-4.585801	Bank	-0.3775772
-5.873528	Banker
-5.497701	Bankers
-5.873528	Bankhead
-4.81775	Banks	-0.1848047
-5.873528	Banks's
-5.873528	Banner
-5.873528	Bantu
-5.688745	Bantus
-4.81775	Baptist	-0.03335615
-5.873528	Baptist's
-5.873528	Baptiste
-5.497701	Baptists
-5.093956	Bar
-5.873528	Baraclough
-5.873528	Barataria
-5.048199	Barbara
-5.873528	Barbarians
-5.873528	Barbecued
-5.433186	Barber
-5.873528	Barbour
-5.873528	Barbudos
-5.497701	Barcus
-5.873528	Barcus'
-5.873528	Bardall
-5.873528	Bardell
-5.873528	Bare
-4.934255	Bari	-0.1897378
-5.873528	Bari's
-5.873528	Baringer
-5.145109	Barker	-0.1250605
-5.873528	Barnaba
-5.433186	Barnard
-5.873528	Barnard's
-5.093956	Barnes	-0.1548965
-5.873528	Barnet
-5.006806	Barnett	-0.06618158
-5.145109	Barney
-5.497701	Barnumville
-5.688745	Baroque
-5.873528	Barr
-5.433186	Barre
-5.873528	Barre-Montpelier
-5.873528	Barrel
-5.873528	Barren
-5.873528	Barrett
-5.873528	Barrette
-5.873528	Barrington
-5.873528	Barrow
-5.688745	Barry
-5.873528	Bars
-5.873528	Barsacs
-5.688745	Barstow
-5.433186	Barth	-0.2010447
-5.873528	Bartha
-5.873528	Bartholf
-5.873528	Bartleby
-5.688745	Bartlett
-5.873528	Bartok
-5.873528	Bartol
-4.650259	Barton
-5.688745	Barton's
-5.873528	Bas
-5.688745	Bascom
-5.873528	Base
-5.433186	Baseball
-5.688745	Based	-0.4755671
-5.873528	Basel
-5.873528	Baseman
-5.873528	Basement
-5.873528	Bashaw
-5.873528	Bashir
-5.145109	Basic
-5.873528	Basically
-5.873528	Basie
-5.873528	Basil
-5.873528	Basil's
-5.873528	Basin
-5.873528	Basing
-5.873528	Basketball
-5.873528	Basler
-5.873528	Bassi
-5.873528	Bassis
-5.873528	Basso
-5.873528	Bast
-5.873528	Bastards
-5.873528	Bastianini
-5.688745	Batavia
-5.873528	Batchelder
-5.315227	Bates
-5.873528	Bates'
-5.873528	Bath
-5.873528	Bathing
-5.873528	Bathyran
-5.873528	Bathyrans
-5.294833	Batista
-5.688745	Batista's
-5.433186	Baton	-0.6560211
-5.873528	Battalion
-5.497701	Battenkill
-5.688745	Battery
-5.093956	Battle	-0.9406925
-5.873528	Baubles
-5.873528	Baudelaire
-5.873528	Bauer
-5.873528	Bauer-Ecsy
-5.873528	Bauhaus
-5.688745	Baullari
-5.873528	Baum
-5.688745	Bavaria
-4.468415	Bay	-0.1556693
-5.873528	Bay-front
-5.873528	Bayaderka
-5.873528	Bayanihan
-5.873528	Bayerische
-5.873528	Bayezit
-5.873528	Baylor
-5.873528	Baylor's
-5.873528	Bayou
-5.497701	Bayreuth
-5.873528	Bazaar
-4.585801	Be	-0.5057144
-5.873528	Bea
-4.650259	Beach	-0.03442722
-5.873528	Bead
-5.688745	Beadle
-5.873528	Beadles
-5.873528	Beadles'
-5.873528	Beads
-5.873528	Beale
-5.873528	Beall
-5.873528	Beallsville
-5.873528	Beam
-5.688745	Beame
-5.873528	Beaming
-5.873528	Bean
-5.497701	Bear
-5.873528	Bear's
-5.497701	Bearden
-5.433186	Beardens
-5.873528	Beardslee
-5.873528	Beardsley's
-5.093956	Bears
-5.688745	Beat
-5.873528	Beaten
-5.497701	Beatie
-5.873528	Beatitudes
-5.294833	Beatrice
-5.873528	Beau
-5.873528	Beauchamps
-5.145109	Beauclerk
-5.873528	Beaujolais
-5.873528	Beaulieu
-5.688745	Beaumont
-5.433186	Beautiful
-5.497701	Beauty
-5.873528	Beauty's
-5.873528	Beaux-Arts
-5.873528	Beaver
-5.315227	Beaverton
-5.873528	Became
-4.20935	Because	-0.3921838
-5.873528	Beccaria
-5.873528	Bechhofer
-5.873528	Beck
-5.873528	Becket
-5.315227	Beckett
-5.497701	Beckett's
-5.873528	Beckman
-5.688745	Beckstrom
-5.497701	Beckworth
-5.873528	Bed
-5.873528	Bedbugs
-5.688745	Bede
-5.873528	Bedford
-5.873528	Bedridden
-5.873528	Bedtime
-5.873528	Bee
-5.873528	Bee-Hunter
-5.497701	Beebe
-5.873528	Beebe's
-5.497701	Beech	-0.601196
-5.873528	Beecher
-5.873528	Beef
-5.873528	Been
-5.873528	Beer
-5.873528	Beesemyers
-5.006806	Beethoven
-5.873528	Beethoven's
-4.242019	Before	-0.1659071
-5.873528	Begging
-5.873528	Begin
-5.873528	Beginners'
-5.433186	Beginning
-5.873528	Begley
-5.873528	Behan
-5.873528	Behavior
-4.902071	Behind	-0.1038161
-5.873528	Behold
-5.873528	Beiderbecke
-4.769445	Being
-5.873528	Beirut
-5.873528	Beismortier
-5.873528	Bekkai
-5.873528	Bel
-5.873528	Bel-Air
-5.873528	Bela
-5.873528	Belafonte
-5.873528	Belanger
-5.873528	Belasco
-5.873528	Belated
-5.873528	Belge
-4.902071	Belgian	-0.1045562
-4.725979	Belgians	-0.0224538
-5.873528	Belgium
-5.873528	Belief
-5.873528	Believe
-5.873528	Believing
-5.497701	Bell
-5.873528	Bella
-5.873528	Bellamy's
-5.873528	Belleville
-5.873528	Bellini
-5.873528	Bellman
-5.873528	Bellow
-5.873528	Bellow's
-5.315227	Bellows
-5.873528	Bells
-5.873528	Bellwood
-5.873528	Belmont
-5.873528	Beloved
-4.969018	Below	-0.05576686
-5.873528	Belshazzar
-5.688745	Belt
-5.873528	Belton
-5.873528	Belvedere
-5.873528	Belvidere
-5.873528	Belzec
-5.873528	Beman
-4.769445	Ben
-5.873528	Ben's
-5.873528	Ben-Gurion
-5.873528	Ben-hadad
-5.294833	Bench	-0.2428137
-5.873528	Benched
-5.433186	Bend
-5.497701	Beneath
-5.688745	Benedick
-5.873528	Benedictine
-5.873528	Benediction
-5.873528	Benefactor
-5.873528	Benefactor's
-5.873528	Beneficiary
-5.873528	Benefit
-5.873528	Benelux
-5.873528	Benesi
-5.873528	Benet
-5.873528	Benet's
-5.873528	Benets
-5.497701	Bengal
-5.873528	Bengali
-5.294833	Benington
-5.873528	Benita
-4.969018	Benjamin	-0.1704735
-5.873528	Bennett
-5.497701	Bennington
-5.497701	Benny
-5.873528	Benoit
-4.81775	Benson	-0.1545983
-5.873528	Benson's
-5.873528	Bent-Arm
-5.873528	Bentham
-5.873528	Bentleys
-5.873528	Benzedrine
-5.873528	Benzell
-4.902071	Beowulf	-0.05697806
-5.873528	Beowulf's
-5.873528	Berea
-5.873528	Berg's
-5.873528	Bergamaschi
-4.872108	Berger
-5.433186	Berger's
-5.873528	Bergson
-5.873528	Beringer
-5.873528	Berkeley
-5.873528	Berkely
-5.873528	Berkman
-5.873528	Berkshires
-5.497701	Berle	-0.2803494
-4.184875	Berlin	-0.1471486
-5.497701	Berlin's
-5.873528	Berlin-West
-5.873528	Berliners
-5.873528	Berlioz
-5.873528	Berlitz
-5.315227	Berman
-5.873528	Berman's
-5.688745	Bermuda
-5.433186	Bern	-0.2192333
-5.873528	Bernadine's
-5.093956	Bernard
-5.873528	Bernardine
-5.873528	Bernardo
-5.873528	Berne
-5.873528	Bernet
-5.873528	Bernhard
-5.873528	Bernhardt
-5.873528	Bernie
-5.873528	Berniece
-5.873528	Bernini
-5.873528	Bernini's
-5.873528	Bernoulli
-5.873528	Bernstein
-5.873528	Bernz-O-Matic
-5.873528	Beronio
-5.873528	Berra
-5.873528	Berra's
-5.873528	Berrellez
-5.315227	Berry	-0.1552255
-5.873528	Berry's
-5.873528	Bert
-5.873528	Berteros
-5.873528	Berth
-5.433186	Bertha
-5.873528	Berthelier
-5.688745	Berto
-5.873528	Berto's
-5.873528	Bertoia
-5.873528	Berton
-5.873528	Bertorelli
-5.873528	Bertrand
-5.873528	Beryl
-5.873528	Beside
-4.50413	Besides	-0.3555565
-5.688745	Bess
-5.873528	Bessarabia
-5.873528	Besset
-5.873528	Bessie
-5.093956	Best
-5.873528	Bester
-5.873528	Bestimmung
-5.873528	Bet
-5.873528	Beta
-5.873528	Betancourt
-5.433186	Beth
-5.873528	Bethel
-5.873528	Bethlehem
-5.873528	Betsey
-5.873528	Betsy
-5.145109	Better
-5.873528	Betting
-5.688745	Betty
-5.873528	Betty's
-4.934255	Between	-0.2435634
-5.873528	Bevel
-5.873528	Beverages
-4.902071	Beverly	-0.2902093
-5.873528	Bevo
-5.873528	Bexar
-5.315227	Bey
-5.873528	Beyeler
-4.81775	Beyond	-0.08955847
-5.873528	Bianco
-5.873528	Bibb
-4.292324	Bible	-0.1446622
-5.873528	Bible-emancipated
-5.873528	Bible-loving
-4.872108	Biblical	-0.06219514
-5.873528	Biblically
-5.873528	Bibliography
-5.873528	Bicycle
-5.873528	Bid
-5.873528	Biddle
-5.873528	Bids
-5.093956	Bienville
-5.873528	Bierce
-5.873528	Bietnar
-4.435415	Big	-0.334082
-5.873528	Biggest
-4.28477	Bill	-0.04140445
-5.873528	Bill's
-5.688745	Billie
-5.873528	Billiken
-5.873528	Billikens
-5.873528	Billings
-5.873528	Billions
-5.873528	Bills
-4.633225	Billy	-0.1596911
-5.873528	Bimini
-5.873528	Bing
-5.873528	Bingles
-5.873528	Binomial
-5.873528	Bio-Dynamic
-5.433186	Biological	-0.2220788
-5.873528	Birch
-5.315227	Bird
-5.873528	Birdie
-5.006806	Birds
-5.873528	Birds'
-5.873528	Birdwhistell
-5.873528	Birdwood
-5.873528	Birgit
-5.873528	Birgitta
-5.688745	Birkhead
-4.934255	Birmingham	-0.1336629
-5.873528	Birnbaum
-5.688745	Birth
-5.873528	Biscayne
-4.934255	Bishop
-5.873528	Bishops
-5.873528	Bishopsgate
-5.873528	Bismarck
-5.873528	Bismark
-5.497701	Bisque
-5.873528	Bitter
-5.873528	Bitterness
-5.873528	Bix
-5.688745	Bizerte
-5.873528	Bizet's
-5.873528	Bjerre's
-5.873528	Blaber
-4.376101	Black	-0.164444
-5.315227	Black's
-5.873528	Blackberry
-5.873528	Blackfeet
-4.872108	Blackman
-5.688745	Blackmer
-5.873528	Blacks
-5.873528	Blackstone
-5.873528	Blaine
-5.873528	Blair
-5.315227	Blake	-0.1552255
-5.688745	Blakey
-5.873528	Blanc
-5.873528	Blanchard
-5.873528	Blanchard's
-4.81775	Blanche	-0.05275628
-5.873528	Blanche's
-5.873528	Blanched
-5.873528	Blanton
-5.688745	Blasingame
-5.873528	Blasphemous
-5.873528	Blauberman
-5.873528	Blaustein
-5.688745	Bldg.
-5.873528	Bleaching
-5.873528	Bleak
-5.873528	Bleckley
-5.873528	Bleeker
-5.873528	Blend
-5.433186	Blenheim
-5.873528	Bless
-5.688745	Blessed
-5.873528	Blessings
-5.873528	Blevins
-5.873528	Blevins'
-5.873528	Blimp
-5.873528	Blind
-5.873528	Blish's
-5.873528	Blistered
-5.873528	Blitz
-5.873528	Bloch
-5.688745	Blockade
-5.873528	Blois
-5.873528	Blomdahl
-5.294833	Blood
-5.873528	Bloom
-5.873528	Bloomfield
-5.873528	Blossom
-5.873528	Blowers
-5.873528	Blowing
-4.385441	Blue	-0.3383647
-5.873528	Bluebird
-5.873528	Blueprints
-5.048199	Blues	-0.3919441
-5.873528	Blum
-5.688745	Blumberg
-5.873528	Blume
-5.873528	Blumenthal
-5.873528	Blunt
-5.873528	Bluntly
-5.873528	Blush
-5.873528	Bluthenzweig
-5.497701	Blvd.	-0.2837391
-5.873528	Blyth
-5.873528	Bo
-5.873528	Boa
-5.873528	Boadicea
-5.873528	Boal
-4.21569	Board	-0.5362405
-5.873528	Board's
-5.688745	Boards
-5.688745	Boat
-5.873528	Boatel
-5.873528	Boating
-5.873528	Boatmen
-5.688745	Boats
-5.873528	Boatyards
-5.873528	Boaz
-4.446138	Bob	-0.09652541
-5.873528	Bob's
-4.725979	Bobby	-0.5440486
-5.873528	Bock
-5.873528	Bodenheim
-5.873528	Bodily
-5.873528	Bodin
-5.873528	Bodleian
-5.315227	Body
-5.873528	Body-building
-5.873528	Boehmer
-5.688745	Boeing
-5.873528	Boeotian
-5.873528	Boggs
-5.873528	Bohart
-5.873528	Boheme
-5.873528	Bohemian
-5.873528	Bohlen
-5.873528	Boils
-5.873528	Bois
-5.873528	Boisbriant
-5.873528	Boismassif
-5.873528	Boissoneault
-5.873528	Boland
-5.873528	Bold
-5.873528	Bolet
-5.873528	Bolger
-5.873528	Bolingbroke
-5.873528	Bolingbroke's
-5.873528	Boliou
-5.873528	Bolivar
-5.873528	Bolivia
-5.873528	Bolker
-5.873528	Bologna
-5.873528	Bolovens
-5.873528	Bolsheviks
-5.873528	Bolshevism
-5.873528	Bolshoi
-5.873528	Boltzmann
-5.688745	Bomb
-5.873528	Bombers'
-5.497701	Bombus
-5.873528	Bonanza
-5.873528	Bonaparte
-5.873528	Bonaventure
-5.688745	Bond
-5.688745	Bondi
-5.873528	Bonenfant
-5.873528	Bones
-5.873528	Bonfiglio
-5.315227	Bong	-0.8272304
-5.873528	Bonham
-5.873528	Bonhoeffer
-5.873528	Bonhoffer
-5.497701	Boniface
-5.873528	Boniface's
-5.873528	Bonito
-5.873528	Bonjour
-5.315227	Bonn
-5.688745	Bonn's
-5.873528	Bonne
-5.315227	Bonner
-5.873528	Bonnet
-5.873528	Bonnie
-5.497701	Bonnor
-5.873528	Bontempo
-5.873528	Booby
-5.873528	Boogie
-4.792926	Book	-0.08488105
-5.873528	Booker
-5.873528	Books
-5.873528	Bookwalter
-5.873528	Boone
-5.873528	Boonton
-5.873528	Boot
-5.688745	Booth
-5.873528	Boothby
-5.873528	Bootle
-5.873528	Bootle's
-5.873528	Boots
-5.873528	Booty
-5.873528	Borak
-5.873528	Bordeau
-5.873528	Bordeaux
-5.873528	Bordel
-4.747169	Borden	-0.04566606
-5.873528	Bordens
-5.315227	Border
-5.873528	Bordner
-5.873528	Bore
-5.873528	Boredom
-5.873528	Borglum
-5.048199	Boris
-5.688745	Boris'
-5.873528	Borland
-5.873528	Born
-5.873528	Borneo
-5.873528	Bornholm
-5.873528	Boron
-5.873528	Borough
-5.873528	Borrioboola-Gha
-5.873528	Borromini
-5.873528	Borromini's
-5.873528	Borrowing
-5.873528	Bosch
-5.873528	Bosco
-5.315227	Bosis
-5.873528	Bosis'
-5.873528	Bosler
-5.873528	Bosley
-5.433186	Bosphorus
-5.873528	Boss
-5.873528	Bostitch
-4.277347	Boston	-0.1599214
-5.873528	Boston's
-5.873528	Bostonian
-5.873528	Bostonians
-4.11878	Both	-0.09884715
-5.873528	Bottega
-5.873528	Bottineau
-5.145109	Bottom	-0.1040113
-5.873528	Bottoms
-5.873528	Botulinal
-5.873528	Boucher
-5.873528	Bougie
-5.688745	Boulder
-5.093956	Boulevard
-5.873528	Boulez
-5.873528	Boulle
-5.497701	Boun
-5.688745	Boundary	-0.4778396
-5.497701	Bourbon
-5.315227	Bourbons
-5.688745	Bourcier
-5.873528	Bourgeois
-5.873528	Bourguiba
-5.873528	Bourn
-5.873528	Boutflower
-5.873528	Bouton
-5.873528	Bouvardier
-5.873528	Bouvier
-5.873528	Bow
-5.873528	Bowan
-5.873528	Bowden
-5.873528	Bowdoin
-5.873528	Bowers
-5.873528	Bowie
-5.688745	Bowl
-5.688745	Bowman
-5.497701	Box
-5.497701	Boxell
-5.873528	Boxford
-5.873528	Boxwood
-5.315227	Boy
-5.873528	Boy-Lady
-5.873528	Boy-Marquita
-5.873528	Boyce
-5.497701	Boyd
-5.873528	Boyer
-5.873528	Boylston
-5.006806	Boys	-0.08721106
-5.688745	Brace
-5.873528	Bracken
-5.873528	Bradbury's
-5.873528	Braddock-against-the-Indians
-5.873528	Braden
-5.433186	Bradford
-5.497701	Bradley
-5.873528	Brady
-5.873528	Brae
-5.873528	Bragg
-5.873528	Brahm's
-5.873528	Brahmaputra
-5.294833	Brahms
-5.873528	Brahmsian
-5.873528	Braille
-5.873528	Brailsford
-5.688745	Brain
-5.873528	Brains
-5.873528	Brakes
-5.873528	Brakke
-5.873528	Bramante's
-5.433186	Branch
-5.873528	Branchville
-5.873528	Brandeis
-5.688745	Brandel
-5.873528	Brandenburg
-5.315227	Brandon
-5.048199	Brandt	-0.0759517
-5.873528	Brandt's
-5.294833	Brandywine	-0.5680713
-4.585801	Brannon	-0.1677947
-5.873528	Brannon's
-5.873528	Branum
-5.093956	Braque	-0.09921981
-5.497701	Braque's
-5.873528	Braques
-5.873528	Brass
-5.873528	Brassbound's
-5.873528	Brassica
-4.969018	Brassnose	-0.05820442
-5.873528	Brasstown
-5.873528	Braud
-5.873528	Braun
-5.688745	Brave
-5.688745	Braves
-5.873528	Braves'
-5.873528	Bravo
-5.315227	Brazil	-0.1552255
-5.497701	Brazilian
-5.873528	Brazos
-5.873528	Break
-5.873528	Breakfast
-5.873528	Breakthrough
-5.315227	Breasted
-5.688745	Breath
-5.873528	Breathing
-5.873528	Breckenridge's
-5.873528	Breed
-5.873528	Breed's
-5.433186	Breeding
-5.873528	Bregman
-5.873528	Brelin
-5.873528	Bremsstrahlung
-5.873528	Brendan
-5.688745	Brennan
-5.093956	Brenner	-0.1730851
-5.688745	Brenner's
-5.873528	Brest
-5.873528	Brestowe
-5.873528	Breton
-5.497701	Brett
-5.873528	Breuer
-5.433186	Brevard
-5.873528	Breve
-5.873528	Brevet
-5.873528	Brew
-5.873528	Brewers
-5.873528	Brewery
-5.433186	Brian	-0.6560176
-5.873528	Briar
-5.873528	Brice
-5.873528	Bricker
-5.873528	Bricks
-5.873528	Bricktop
-5.873528	Bride
-5.873528	Bridewell
-4.872108	Bridge	-0.1550272
-5.873528	Bridgeport
-5.497701	Bridges	-0.2803494
-4.725979	Bridget	-0.1427083
-5.873528	Bridget's
-5.873528	Bridgewater
-5.688745	Brief
-5.873528	Briefer
-5.873528	Brieff
-5.873528	Briefly
-5.873528	Brien
-5.873528	Brig.
-5.873528	Brigade
-5.873528	Brigadier
-5.873528	Brigadoon
-5.873528	Brigantine
-5.873528	Briggs
-5.048199	Bright	-0.09699711
-5.873528	Bright's
-5.873528	Brindisi
-5.873528	Bring
-5.873528	Brinkley
-5.688745	Brisbane
-5.688745	Bristol	-0.4568112
-4.307836	Britain	-0.2396681
-5.315227	Britain's
-5.873528	Britannic
-5.873528	Britannica
-3.983741	British	-0.06475905
-5.873528	British-American
-5.873528	British-born
-5.873528	Britisher
-5.873528	Briton
-5.873528	Britons
-5.873528	Brittany
-5.873528	Britten
-5.873528	Broad
-5.873528	Broadcasters
-5.688745	Broadcasting
-5.873528	Broadly
-4.705776	Broadway	-0.08338514
-5.873528	Broadway's
-5.873528	Brocklin
-5.873528	Brocklin's
-5.873528	Brod
-5.873528	Brodbeck
-5.048199	Brodie	-0.1967282
-5.873528	Broeg
-5.873528	Broglie
-5.873528	Broglio
-5.873528	Broglio's
-5.873528	Broil
-5.873528	Broke
-5.873528	Bromfield's
-5.873528	Bromley
-5.873528	Broncos
-5.873528	Broncs
-5.873528	Bronislaw
-5.145109	Bronx
-5.873528	Brooding
-5.873528	Brook
-5.873528	Brooke
-5.873528	Brookfield
-4.60104	Brooklyn	-0.5692561
-5.873528	Brooklyn's
-5.873528	Brookmeyer's
-5.873528	Brookmont
-4.872108	Brooks	-0.3849798
-5.873528	Brooks's
-5.873528	Broome
-5.873528	Bros.'
-5.873528	Brother
-5.873528	Brotherhood
-5.873528	Brothers
-5.873528	Broun
-4.002876	Brown	-0.2933147
-4.686471	Brown's
-5.873528	Brownapopolus
-5.873528	Browne
-5.873528	Brownell
-5.315227	Browning
-5.873528	Browning's
-5.873528	Brownings
-5.873528	Brownlow
-5.873528	Broxodent
-5.497701	Bruce
-5.873528	Bruckmann
-5.497701	Bruckner
-5.688745	Bruckner's
-5.873528	Bruegel
-5.873528	Bruhn
-5.873528	Bruises
-5.873528	Brumby
-5.006806	Brumidi
-5.315227	Brumidi's
-5.873528	Brumidi-Costaggini
-5.873528	Bruno
-5.688745	Brush
-5.688745	Brussels
-5.873528	Bruxelles
-5.048199	Bryan
-5.873528	Bryan's
-5.873528	Bryant
-5.873528	Bryce
-5.873528	Bryn
-5.873528	Bryson
-5.873528	Buaford
-5.873528	Bubenik
-5.873528	Buber
-5.873528	Buber-think
-5.873528	Bucer
-5.873528	Buchanan
-5.873528	Bucharest
-5.873528	Buchenwald
-5.315227	Buchheister
-4.872108	Buck	-0.041154
-5.873528	Buck's
-5.873528	Buckenham
-5.873528	Buckets
-5.873528	Buckhannon
-5.873528	Buckhead
-5.873528	Buckhorn's
-5.294833	Buckley
-5.873528	Buckman
-5.873528	Buckra
-5.873528	Bucks
-5.873528	Bucky
-5.873528	Bucs
-5.873528	Bucs'
-5.433186	Bud
-5.145109	Budapest
-5.433186	Budd
-5.688745	Buddha
-5.093956	Buddhism	-0.08819937
-5.497701	Buddhist
-5.873528	Buddhists
-5.873528	Buddy
-5.873528	Budget
-5.873528	Budgetary
-5.873528	Budgeting
-5.873528	Budieshein
-5.873528	Budlong
-5.873528	Budzyn
-5.873528	Buell
-5.873528	Buell's
-5.873528	Buena
-5.873528	Buenas
-5.873528	Bueno
-5.145109	Buffalo	-0.1040113
-5.873528	Buffeted
-5.873528	Bug
-5.873528	Bugle
-5.688745	Bugs
-5.688745	Buick
-5.873528	Build
-5.688745	Builder
-5.873528	Builders
-4.934255	Building
-5.873528	Built
-5.873528	Bul'ba
-5.873528	Bulba
-5.873528	Bulgaria
-5.873528	Bulge
-5.873528	Bull
-5.873528	Bullet
-4.969018	Bulletin	-0.103792
-5.873528	Bullets
-5.873528	Bullfinch
-5.873528	Bulloch
-5.873528	Bullshit
-5.873528	Bully
-5.497701	Bultmann
-5.294833	Bultmann's
-5.873528	Bumblebees
-5.873528	Bumbry
-5.873528	Bunch
-5.873528	Bundestag
-5.873528	Bundle
-5.873528	Bundy
-5.873528	Bunks
-5.873528	Bunny
-5.873528	Bunyan
-5.873528	Burbank
-5.873528	Burch
-5.873528	Burch's
-5.873528	Burckhardt
-4.633225	Bureau	-0.3039373
-5.873528	Buren
-5.873528	Burford
-5.873528	Burger
-5.873528	Burgess
-5.873528	Burgesses
-5.873528	Burghardt
-5.873528	Burgher
-5.873528	Burghley
-5.873528	Burgundian
-5.873528	Burgundies
-5.315227	Burgundy
-5.688745	Buri
-5.873528	Burial
-5.873528	Buries
-5.315227	Burke	-0.1552255
-5.873528	Burke's
-5.873528	Burke-Rostagno
-5.873528	Burkes
-5.873528	Burkes'
-5.873528	Burle
-5.873528	Burleson
-5.873528	Burlingame
-5.873528	Burlingham
-5.315227	Burlington
-5.873528	Burlington's
-5.873528	Burly
-4.81775	Burma	-0.03335615
-5.873528	Burman
-5.873528	Burman's
-5.873528	Burmans
-5.497701	Burmese
-5.873528	Burnes
-5.873528	Burnet
-5.873528	Burnham
-5.873528	Burnham's
-5.873528	Burning
-5.873528	Burns
-5.873528	Burns's
-5.873528	Burnside
-5.433186	Burnsides
-5.873528	Burnsides'
-5.873528	Burnt
-5.433186	Burr	-0.3874781
-5.873528	Burr's
-5.873528	Burro
-5.873528	Burst
-5.873528	Bursting
-5.873528	Bursts
-5.873528	Burt
-4.872108	Burton	-0.09518734
-5.873528	Burton's
-5.873528	Bury
-5.873528	Busch
-5.497701	Bush	-0.2803494
-5.688745	Bushell
-5.873528	Bushes
-5.873528	Bushnell
-4.571077	Business	-0.1760687
-5.873528	Businesses
-5.873528	Businessmen
-5.873528	Bust
-5.688745	Buster
-2.969742	But	-0.4832444
-5.315227	Butcher
-5.873528	Butler
-5.873528	Butlers
-5.873528	Butt
-5.873528	Butte
-5.873528	Butter
-5.873528	Butterwyn
-5.873528	Button's
-5.873528	Buttrick
-5.873528	Buxtehude
-5.873528	Buxton
-5.873528	Buy
-5.873528	Buying
-3.764897	By	-0.1309736
-5.873528	By-passing
-5.873528	By-word
-5.873528	Bye
-5.873528	Byer-Rolnick
-5.873528	Bylot
-5.093956	Byrd	-0.08819937
-5.688745	Byrd's
-5.873528	Byrnes
-4.872108	Byron
-5.688745	Byron's
-5.873528	Byronic
-5.873528	Byronism
-5.873528	Bystrzyca
-5.688745	Byzantine
-5.873528	Byzantium
-5.873528	Byzas
-3.965413	C	-0.4315916
-5.433186	C'
-5.873528	C'est
-5.873528	C'mon
-5.145109	C-plane
-4.084411	C.	-0.04822434
-5.873528	C.A.I.P.
-5.873528	C.C.B.
-5.873528	C.C.N.Y.
-5.873528	CB
-5.873528	CBS
-5.145109	CD	-0.125033
-5.294833	CDC
-5.873528	CDC's
-5.873528	CH
-5.873528	CJS
-5.688745	CO
-5.433186	COAHR
-5.873528	CODE,DTF
-5.873528	COLH
-5.873528	CONELRAD
-5.873528	CSF
-5.294833	CTA
-5.433186	CTCA
-5.873528	CV
-5.873528	Cabana
-5.873528	Cabin
-5.433186	Cabinet
-5.688745	Cable
-5.873528	Cabot
-5.873528	Cabot's
-5.873528	Cacophonist
-5.873528	Caddy
-5.873528	Cadesi
-5.873528	Cadet
-5.093956	Cadillac
-5.873528	Cadillacs
-5.433186	Caesar
-5.873528	Caetani
-5.433186	Cafe
-5.873528	Cafeteria
-5.873528	Cagayan
-5.873528	Cahill
-5.873528	Cain
-5.873528	Cairns
-5.433186	Cairo
-5.873528	Cairoli
-5.873528	Caius
-5.873528	Cal.
-5.873528	Calabria
-5.873528	Calamity
-5.688745	Calcium
-5.873528	Calculations
-5.497701	Calcutta
-5.873528	Calder
-5.315227	Calderone
-5.688745	Caldwell
-5.873528	Caldwell's
-5.873528	Caleb
-5.433186	Calenda
-5.048199	Calhoun
-5.873528	Calhoun's
-4.769445	Calif.	-0.5178559
-4.255807	California	-0.1498322
-5.688745	California's
-5.873528	Californians
-5.873528	Calimala
-5.294833	Call
-5.873528	Callan
-5.873528	Callas
-5.433186	Called
-5.873528	Calling
-5.873528	Calls
-5.873528	Calm
-5.873528	Calmer
-5.873528	Calmly
-5.873528	Caltech
-5.873528	Caltech's
-5.873528	Calude
-5.873528	Calvary
-5.873528	Calves
-5.497701	Calvin
-5.873528	Calvinist
-5.873528	Cam
-5.497701	Camaret
-5.873528	Cambodia
-5.873528	Cambodia's
-4.872108	Cambridge	-0.2473998
-5.873528	Cambridgeport
-5.873528	Camden
-5.873528	Came
-5.873528	Camelot
-5.873528	Cameo
-5.873528	Camera
-5.873528	Cameras
-5.873528	Cameron
-5.873528	Cami
-5.873528	Camilla
-5.873528	Camille
-5.873528	Camilo
-5.145109	Camp
-5.873528	Campagnoli
-5.873528	Campaign
-5.873528	Campaigne
-5.873528	Campaigning
-5.497701	Campbell	-0.2803494
-5.873528	Campground
-5.873528	Camping
-5.873528	Campitelli
-5.873528	Campo
-5.873528	Campobello
-5.688745	Campus
-5.497701	Camusfearna	-0.2803494
-4.60104	Can	-0.1903606
-4.969018	Can't	-0.1696429
-4.543048	Canada	-0.2484404
-5.873528	Canada's
-5.294833	Canadian
-5.873528	Canadian's
-5.873528	Canadians
-5.688745	Canal
-5.873528	Canandaigua
-5.873528	Canaveral's
-5.433186	Cancer
-5.873528	Candide
-5.873528	Candle
-5.873528	Candlelight
-5.873528	Candlestick
-5.873528	Candy
-5.873528	Canestrani
-5.873528	Canned
-5.873528	Canneries
-5.873528	Cannibal
-5.873528	Canning
-5.688745	Cannon
-5.873528	Canon
-5.873528	Canteloube
-5.497701	Canterbury
-5.873528	Canticle
-5.873528	Cantonese
-5.315227	Canyon
-5.294833	Cap
-5.873528	Capable
-4.844079	Cape	-0.1996894
-5.873528	Capek's
-5.873528	Capellan
-5.873528	Capello
-5.433186	Caper
-5.873528	Capet
-5.873528	Capetown
-5.433186	Capital
-5.688745	Capitalism
-5.873528	Capitalist
-4.725979	Capitol	-0.1210212
-5.873528	Capitoline
-5.873528	Capo
-5.315227	Capone
-5.873528	Capone's
-5.873528	Capote
-5.433186	Capt.
-4.543048	Captain	-0.142825
-5.497701	Car
-5.873528	Caracas
-5.873528	Carausius
-5.873528	Caravaggio
-5.433186	Caravan
-5.873528	Caravan's
-5.873528	Carboloy
-5.873528	Carbon
-5.873528	Carbondale
-5.873528	Carbones
-5.873528	Cardboard
-5.294833	Cardinal	-0.1462722
-5.433186	Cardinals
-5.873528	Cardiovasculatory
-5.688745	Cards
-5.873528	Care
-5.873528	Careful
-5.873528	Carefully
-5.873528	Careless
-5.873528	Cares
-5.433186	Carey
-5.873528	Cargo
-5.294833	Caribbean
-5.873528	Caring
-4.435415	Carl	-0.08661102
-5.497701	Carl's
-5.873528	Carla
-4.585801	Carleton	-0.1220955
-5.873528	Carleton's
-5.873528	Carletonian
-5.873528	Carlisle
-5.873528	Carlo
-5.688745	Carlson	-0.4568112
-5.873528	Carlyle's
-5.873528	Carmack
-5.873528	Carmen
-5.048199	Carmer
-5.688745	Carmer's
-5.873528	Carmichael
-5.873528	Carmine
-5.873528	Carmody
-5.873528	Carnarvon's
-5.873528	Carnegey
-5.145109	Carnegie
-5.873528	Carneigie
-5.873528	Carney
-5.294833	Carnival
-5.873528	Carnochan
-5.873528	Carol
-5.688745	Caroli
-4.650259	Carolina	-0.2325809
-5.873528	Carolina's
-5.873528	Carolinas
-5.873528	Caroline
-5.873528	Carolingian
-5.688745	Carolinians
-5.873528	Carols
-5.873528	Carolyn
-5.873528	Caron
-5.873528	Carpathians
-5.873528	Carpenter's
-5.873528	Carpentier
-5.873528	Carr
-5.873528	Carrara
-5.873528	Carre
-5.873528	Carrel
-5.873528	Carreon
-5.873528	Carreon's
-5.873528	Carriages
-5.873528	Carried
-5.873528	Carrier
-4.844079	Carroll	-0.06905936
-5.873528	Carrots
-5.433186	Carruthers	-0.2010447
-5.873528	Carrying
-5.873528	Cars
-5.873528	Carson
-5.873528	Carsten
-5.294833	Carter	-0.1252252
-5.873528	Carters
-5.873528	Cartesian
-5.873528	Cartoons
-5.873528	Carty
-5.873528	Caruso
-5.873528	Carvalho
-5.433186	Carvey
-5.873528	Carving
-5.873528	Carwood
-5.873528	Carwood's
-5.873528	Casals
-5.873528	Casanova
-5.873528	Casassa
-5.688745	Casbah
-5.873528	Casca
-5.873528	Cascaded
-5.688745	Cascading
-5.294833	Case
-5.873528	Case's
-5.873528	Cases
-4.686471	Casey	-0.06199909
-5.873528	Casey's
-5.688745	Cash
-5.873528	Casino
-5.873528	Cassiopeia
-5.873528	Cassite
-5.873528	Cassius
-5.873528	Castaneda
-5.873528	Castillo
-5.873528	Castle
-5.873528	Castles
-5.873528	Castor
-4.543048	Castro	-0.09823227
-5.433186	Castro's
-5.873528	Castro-held
-5.873528	Castroism
-5.873528	Castros
-5.873528	Casualties
-5.873528	Casualty
-5.873528	Cat
-5.873528	Catalog
-5.873528	Catastrophe
-5.873528	Catch
-5.873528	Catcher
-5.873528	Cate's
-5.873528	Cater
-5.873528	Catfish
-5.873528	Cathedral
-5.497701	Catherine
-5.873528	Catherine's
-5.873528	Catherwood
-5.873528	Catheter
-4.12912	Catholic	-0.09401441
-5.145109	Catholicism
-4.529685	Catholics	-0.06576489
-5.873528	Catholics'
-5.873528	Cathy
-5.873528	Catinari
-5.873528	Caton's
-5.873528	Cats
-5.433186	Catskill
-5.873528	Catskills
-5.497701	Catt
-5.294833	Cattle
-5.873528	Caucasus
-5.873528	Caucusing
-5.873528	Cauffman
-5.873528	Caught
-5.873528	Causes
-5.433186	Caution	-0.6553637
-5.873528	Cautious
-5.873528	Cautiously
-5.873528	Cav
-5.873528	Cav's
-5.873528	Cavaliere
-5.873528	Cavallinis
-5.093956	Cavalry
-5.873528	Cavanagh
-5.873528	Caverns
-5.873528	Caves
-5.873528	Ceartaine
-5.873528	Cecil
-5.688745	Cecilia
-5.873528	Cedar
-5.873528	Cedric
-5.873528	Cedvet
-5.873528	Ceil
-5.873528	Ceilings
-5.873528	Celebes
-5.873528	Celebration
-5.873528	Celia
-5.873528	Celie
-5.873528	Celie's
-5.873528	Cell
-5.873528	Cellist
-5.873528	Cellulose
-5.873528	Celso
-5.294833	Celtic
-5.873528	Cemal
-5.873528	Cement
-5.497701	Cemetery
-5.873528	Cen-Tennial
-5.873528	Cennini
-5.873528	Cennino
-5.688745	Census
-5.688745	Centennial
-4.479997	Center	-0.1849962
-5.873528	Center's
-5.873528	Center-punch
-5.873528	Centering
-5.873528	Centigrade
-4.277347	Central	-0.07093054
-5.873528	Central's
-5.873528	Centrale
-5.873528	Centralia
-5.688745	Centrality
-5.873528	Centrally
-5.873528	Centredale
-4.705776	Century	-0.09368484
-5.873528	Century-Fox
-5.873528	Cepheus
-5.873528	Ceramic
-5.497701	Cereal	-0.60119
-5.873528	Cerebral
-5.873528	Ceremonial
-5.873528	Cerise
-5.048199	Certain
-4.650259	Certainly	-0.2605607
-5.433186	Cerv
-5.873528	Cervantes
-5.873528	Cervantes'
-5.873528	Cervetto
-5.873528	Cesare
-5.873528	Cestre
-5.433186	Ceylon
-5.873528	Cezanne
-5.873528	Cezannes
-5.873528	Cf.
-5.873528	Ch'an
-5.873528	Ch'in
-5.497701	Ch.
-5.873528	Chablis
-5.873528	Chabrier
-5.873528	Chabrier's
-5.873528	Chadwick
-5.873528	Chaffey
-5.873528	Chahar
-5.873528	Chaikoff
-5.873528	Chain
-4.792926	Chairman	-0.07909764
-5.873528	Chairs
-5.873528	Chalidale
-5.873528	Challenge
-5.873528	Chalon-sur-Saone
-4.872108	Chamber	-0.4635712
-5.873528	Chamberlain
-5.688745	Chambers
-5.873528	Chambre
-5.873528	Champ
-5.873528	Champassak
-5.497701	Champion
-5.688745	Champlain
-5.873528	Chance
-5.294833	Chancellor
-5.873528	Chancellorsville
-4.60104	Chandler	-0.01455197
-5.873528	Chandler's
-5.688745	Change
-5.873528	Changeable
-5.433186	Changes	-0.2149243
-5.688745	Changing
-5.315227	Channel
-5.873528	Channel-type
-5.433186	Channing
-5.873528	Channing's
-5.873528	Chantilly
-5.093956	Chapel
-5.873528	Chapelles
-5.873528	Chaplain
-5.688745	Chaplin
-5.315227	Chapman
-5.873528	Chappell
-4.491896	Chapter	-0.1562849
-5.497701	Chapters
-5.873528	Character
-5.873528	Characteristically
-5.873528	Characteristics
-5.873528	Chardon
-5.873528	Charge
-5.873528	Charges
-5.873528	Charitable
-5.873528	Charity
-5.497701	Charlayne
-4.089157	Charles	-0.0490988
-5.315227	Charles'
-5.873528	Charles's
-5.873528	Charleston
-5.145109	Charley	-0.1235721
-5.873528	Charley's
-4.491896	Charlie	-0.1143328
-5.873528	Charlie's
-5.497701	Charlotte
-5.688745	Charlottesville
-5.873528	Charm
-5.873528	Charmer
-5.873528	Charming
-5.873528	Charnock
-5.433186	Chart
-4.969018	Charter	-0.05820442
-5.873528	Charters
-5.873528	Chartres
-5.873528	Charts
-5.294833	Chase
-5.873528	Chases
-5.873528	Chateau
-5.688745	Chatham
-5.688745	Chattanooga
-5.873528	Chaucer
-5.873528	Chauncey
-5.873528	Chautauqua
-5.873528	Chaves
-5.688745	Chavez
-5.873528	Chavez'
-5.873528	Chavis
-5.873528	Che
-5.873528	Cheap
-5.873528	Cheat
-4.902071	Check	-0.1736289
-5.873528	Checkit
-5.873528	Cheddi
-5.873528	Cheer
-5.873528	Cheerful
-5.873528	Chef
-5.873528	Chehel
-5.873528	Chekhov
-5.873528	Chelmno
-5.688745	Chemical
-5.497701	Chemische	-0.601196
-5.688745	Chen
-5.873528	Cheng
-5.873528	Chennault's
-5.688745	Chenoweth
-5.688745	Cherkasov
-5.873528	Chernishev
-5.873528	Cherokee
-5.873528	Cherokees
-5.497701	Cherry	-0.3013871
-5.873528	Cherwell
-5.873528	Ches
-5.497701	Chesapeake	-0.3013381
-5.873528	Cheshire
-5.873528	Chesly
-5.048199	Chester
-5.873528	Chesterton
-5.497701	Chestnut
-5.873528	Chestnuts
-5.873528	Chevalier
-5.497701	Chevrolet
-5.873528	Chevy
-5.873528	Chewing
-5.873528	Cheyenne
-5.688745	Cheyennes
-5.873528	Chi
-5.497701	Chiang
-5.873528	Chiaromonte
-5.873528	Chiba
-4.056973	Chicago	-0.2161454
-5.048199	Chicago's
-5.873528	Chicago-style
-5.873528	Chicagoans
-5.497701	Chickasaws
-5.433186	Chicken	-0.2192333
-5.873528	Chickens
-5.873528	Chico
-4.51672	Chief	-0.156281
-5.873528	Chief's
-5.873528	Chiefly
-5.688745	Chiefs	-0.464312
-5.873528	Chieftains
-5.145109	Chien	-0.1074009
-5.873528	Chiggers
-5.873528	Chilblains
-5.688745	Child
-5.873528	Child's
-5.873528	Childe
-5.873528	Childhood
-5.433186	Childhood's	-0.6560192
-4.969018	Children
-5.873528	Children's
-5.873528	Chile
-5.873528	Chili
-5.873528	Chin
-4.262869	China	-0.2616286
-5.688745	China's
-4.307836	Chinese	-0.02657852
-5.873528	Chinese-Soviet
-5.873528	Chinese-inspired
-5.433186	Ching
-5.873528	Chion
-5.873528	Chip-o's
-5.873528	Chippendale
-5.873528	Chipping
-5.873528	Chips
-5.688745	Chisholm
-5.873528	Chiuchow
-5.873528	Chlorothiazide
-5.873528	Chlortetracycline
-5.873528	Chmn.
-5.873528	Choctaw
-5.688745	Choctaws
-5.688745	Choice
-5.497701	Choir
-5.873528	Cholesterol
-5.873528	Choose
-5.873528	Chopin
-5.873528	Chopin's
-5.873528	Choral
-5.873528	Chorale
-5.873528	Choreographed
-5.873528	Chorus
-5.873528	Chou
-5.873528	Chris
-5.873528	Chrissake
-4.070475	Christ	-0.3048526
-4.769445	Christ's	-0.2035024
-5.873528	Christ-like
-5.688745	Christendom	-0.4602009
-5.873528	Christi
-3.905184	Christian	-0.06183341
-5.093956	Christiana	-0.4309815
-4.556837	Christianity	-0.07100655
-4.81775	Christians	-0.1947426
-5.873528	Christiansen
-5.873528	Christie
-5.873528	Christine
-5.873528	Christine's
-4.667987	Christmas
-5.873528	Christmas-season
-5.433186	Christopher
-5.873528	Christophers'
-5.873528	Christsake
-5.873528	Christy
-5.873528	Chromatography
-5.873528	Chromium
-5.873528	Chromspun
-5.873528	Chronicle
-5.873528	Chronicle's
-5.873528	Chronicles
-5.873528	Chrysler
-5.873528	Chrysler's
-5.315227	Chuck
-5.873528	Chung
-3.951288	Church	-0.3015763
-5.315227	Church's
-4.902071	Churches	-0.04595762
-4.969018	Churchill	-0.103792
-5.873528	Churchill's
-5.873528	Churchillian
-5.873528	Churchyard
-5.873528	Ciardi
-5.873528	Cibula's
-5.433186	Cicero
-5.873528	Cicero's
-5.873528	Ciceronian
-5.873528	Ciciulla
-5.873528	Cicognani
-5.873528	Cieca
-5.873528	Cigarette
-5.873528	Cimabue
-5.873528	Cimabue's
-5.873528	Cimoli
-5.093956	Cincinnati
-5.873528	Cinemactor
-5.873528	Cinerama
-5.873528	Cipolla
-5.873528	Cipriani's
-5.873528	Cir.
-5.873528	Circle
-5.433186	Circuit	-0.2220536
-5.497701	Circular
-5.688745	Circumstance
-5.873528	Circumstances
-5.873528	Circus
-5.873528	Cites
-5.873528	Cities
-5.873528	Citing
-5.873528	Citizen
-5.145109	Citizens	-0.2039438
-5.873528	Citizens'
-5.873528	Citroen
-3.934255	City	-0.2441234
-5.873528	City's
-5.688745	Ciudad
-5.873528	Civic
-4.385441	Civil	-0.8847492
-5.873528	Civilian
-5.873528	Civilian-groups
-5.433186	Civilization
-5.873528	Clad
-5.873528	Claim
-5.093956	Claims	-0.3521338
-5.873528	Clair
-4.872108	Claire
-5.873528	Clams
-5.873528	Clapping
-5.688745	Clara
-5.873528	Clare
-5.145109	Clarence
-4.50413	Clark	-0.07486331
-5.873528	Clark's
-5.873528	Clarke
-5.873528	Clarke's
-5.873528	Clasping
-4.446138	Class	-0.2102292
-5.873528	Class'
-5.873528	Class-D
-5.093956	Classes	-0.09158905
-5.873528	Classic
-5.433186	Classical	-0.3974995
-5.873528	Classicist
-5.006806	Claude
-5.873528	Claude's
-5.873528	Claudia's
-5.873528	Claudio
-5.873528	Claus
-4.872108	Clay	-0.06220058
-4.616835	Clayton	-0.03340827
-5.688745	Clayton's
-5.433186	Clean
-5.873528	Cleaned
-5.873528	Cleaner
-5.873528	Cleaning
-5.873528	Cleanth
-5.873528	Clearer
-5.294833	Clearly	-0.1252252
-5.873528	Clearwater
-5.873528	Cleburne's
-5.873528	Clemence
-5.873528	Clemenceau
-5.873528	Clemens
-5.873528	Clemens'
-5.873528	Clement
-5.688745	Clemente
-5.688745	Clements
-5.873528	Cleota's
-5.294833	Clerfayt
-5.873528	Clericis
-5.873528	Clerks
-5.873528	Cleva
-4.872108	Cleveland	-0.1597462
-5.873528	Clever
-5.688745	Cliburn
-5.688745	Cliff
-5.433186	Clifford
-5.873528	Clifton
-5.873528	Climb
-5.873528	Climbing
-5.688745	Clinico-pathologic
-5.497701	Clint
-5.688745	Clinton
-5.873528	Clipper
-5.873528	Clive
-5.497701	Close
-5.873528	Close-up
-5.873528	Closed
-5.688745	Closely	-0.477824
-5.873528	Closer
-5.873528	Clostridium
-5.873528	Cloth
-5.873528	Clothes
-5.688745	Cloud
-5.873528	Cloudcroft
-5.873528	Clov
-4.20935	Club	-0.2180495
-5.873528	Club's
-5.873528	Clubhouse
-5.433186	Clubs
-5.873528	Cluck
-5.873528	Clumps
-5.873528	Clurman
-5.873528	Clyde
-5.873528	Clyfford
-5.873528	Cmdr.
-5.873528	Co
-5.873528	Co-cola
-5.873528	Co-op
-5.873528	Co-operative
-5.873528	Co-optation
-4.366957	Co.	-0.3120109
-5.315227	Coach
-5.873528	Coaching
-5.497701	Coal
-4.667987	Coast	-0.1452526
-5.873528	Coastal
-5.873528	Coates
-4.792926	Cobb
-5.873528	Cobb's
-5.873528	Coble
-5.873528	Coca-Cola
-5.873528	Cochran
-5.873528	Cocktail
-5.873528	Cocktails
-5.873528	Cocoa
-5.873528	Coconut
-5.873528	Coconuts
-5.873528	Cocteau
-5.433186	Cod
-5.873528	Coddington
-4.844079	Code	-0.06905936
-5.873528	Codification
-5.873528	Cody
-5.433186	Coe
-5.873528	Coeditors
-5.497701	Coffee
-5.873528	Coffee-House
-5.873528	Coffin
-5.688745	Cohen
-5.497701	Cohn
-5.873528	Coke
-5.873528	Cokes
-5.294833	Col.
-5.873528	Colavito
-5.873528	Colcord
-5.873528	Colcord's
-5.093956	Cold	-0.9541815
-5.873528	Cole
-5.873528	Cole's
-5.873528	Colee
-5.873528	Colefax
-5.873528	Coleman
-5.873528	Coleridge
-5.873528	Coleridge's
-5.873528	Coles
-5.873528	Coletta
-5.873528	Colfax
-5.873528	Coliseum
-5.873528	Collected
-5.873528	Collection
-5.873528	Collector's
-4.061427	College	-0.1832509
-5.873528	College's
-5.873528	Collegiate
-5.873528	Collett
-5.873528	Collingwood
-5.315227	Collins	-0.1552255
-5.873528	Collins'
-5.873528	Collinsville
-5.873528	Collyer
-5.688745	Colman
-5.315227	Colmer
-5.873528	Colmer's
-5.873528	Colo.
-5.093956	Cologne	-0.08819937
-5.873528	Colombia
-5.873528	Colombian
-4.633225	Colonel	-0.05319631
-5.433186	Colonial
-5.873528	Colonialism
-5.873528	Colonna
-5.873528	Colonus
-5.688745	Color
-4.934255	Colorado	-0.246001
-5.873528	Colorado's
-5.873528	Colorama
-5.873528	Colored
-5.873528	Colorful
-5.688745	Colors
-5.873528	Colossians
-5.873528	Colossus
-5.873528	Colquitt
-5.433186	Colt
-5.873528	Colt's
-5.873528	Coltsman
-4.792926	Columbia	-0.3111367
-4.902071	Columbus	-0.2204175
-5.006806	Column	-0.06618158
-5.873528	Columnist
-5.433186	Columns
-5.873528	Colvin's
-5.873528	Colzani
-5.873528	Comanche
-5.873528	Comany's
-5.873528	Combe
-5.873528	Combellack
-5.688745	Combine
-5.873528	Combined
-5.873528	Combs
-4.543048	Come	-0.1806357
-5.873528	Comedian
-4.934255	Comedie	-0.07169466
-5.873528	Comedie's
-5.873528	Comedy
-5.873528	Comend
-5.873528	Comenico
-5.497701	Comes
-5.873528	Comet
-5.873528	Comfortably
-5.873528	Comic
-5.873528	Comin'
-5.873528	Cominform
-5.497701	Coming
-5.873528	Comique
-5.873528	Comiskey
-4.902071	Command	-0.06699409
-5.873528	Command's
-5.873528	Commandeering
-5.497701	Commander	-0.294229
-5.873528	Commander-in-Chief
-5.873528	Commanders
-5.873528	Commanding
-5.873528	Commands
-5.873528	Commencing
-5.873528	Comment
-5.873528	Commentaries
-5.688745	Commentary
-5.873528	Commenting
-5.873528	Comments
-5.873528	Commercants
-4.446138	Commerce	-0.1811528
-5.873528	Commercial
-5.873528	Commies
-5.873528	Commissary
-4.167385	Commission	-0.3046376
-5.873528	Commission's
-5.873528	Commission-controlled
-4.934255	Commissioner	-0.100307
-5.873528	Commissioner's
-5.433186	Commissioners
-5.873528	Commissions
-4.108679	Committee	-0.3625571
-5.873528	Committee's
-5.873528	Committeeman
-5.688745	Committeemen
-5.688745	Committees
-5.873528	Commodities
-5.873528	Commodity
-5.688745	Commodore
-4.872108	Common	-0.1807924
-5.873528	Commonly
-5.688745	Commons
-5.688745	Commonweal
-5.433186	Commonwealth	-0.3839584
-5.873528	Commune
-5.433186	Communese
-5.688745	Communication
-5.688745	Communications
-5.873528	Communion
-4.571077	Communism	-0.1110038
-5.873528	Communism's
-5.873528	Communisn
-4.089157	Communist	-0.06104936
-5.873528	Communist-inspired
-5.873528	Communist-led
-5.873528	Communist-type
-5.873528	Communistic
-4.457134	Communists	-0.0710538
-4.81775	Community	-0.03335615
-5.873528	Compagnie
-5.873528	Companies
-4.203101	Company	-0.2657462
-5.294833	Company's
-5.873528	Comparable
-5.873528	Compare
-5.688745	Compared
-5.873528	Competent
-5.294833	Competition
-5.873528	Competitive
-5.873528	Competitors
-5.873528	Compeyson
-5.873528	Compilation
-5.873528	Compiler
-5.873528	Complementing
-5.873528	Complete
-5.873528	Completed
-5.873528	Completing
-4.725979	Completion	-0.3044681
-5.497701	Completions
-5.873528	Complex
-5.873528	Complexity
-5.873528	Complicity
-5.873528	Complying
-5.873528	Components
-5.873528	Composers
-5.497701	Composite
-5.873528	Comprehensive
-5.873528	Compress
-5.873528	Compression
-5.873528	Comprised
